{"learner":{"attributes":{"best_iteration":"99","best_ntree_limit":"100","scikit_learn":"{\"use_label_encoder\": null, \"n_estimators\": 100, \"objective\": \"multi:softmax\", \"max_depth\": 5, \"max_leaves\": null, \"max_bin\": null, \"grow_policy\": null, \"learning_rate\": 0.1, \"verbosity\": null, \"booster\": null, \"tree_method\": \"gpu_hist\", \"gamma\": null, \"min_child_weight\": null, \"max_delta_step\": null, \"subsample\": null, \"sampling_method\": null, \"colsample_bytree\": null, \"colsample_bylevel\": null, \"colsample_bynode\": null, \"reg_alpha\": null, \"reg_lambda\": null, \"scale_pos_weight\": null, \"base_score\": null, \"missing\": NaN, \"num_parallel_tree\": null, \"random_state\": null, \"n_jobs\": null, \"monotone_constraints\": null, \"interaction_constraints\": null, \"importance_type\": null, \"gpu_id\": 0, \"validate_parameters\": null, \"predictor\": null, \"enable_categorical\": false, \"feature_types\": null, \"max_cat_to_onehot\": null, \"max_cat_threshold\": null, \"eval_metric\": null, \"early_stopping_rounds\": null, \"callbacks\": null, \"classes_\": [0, 1, 2, 3, 4, 5, 6, 7, 8, 9], \"n_classes_\": 10, \"_estimator_type\": \"classifier\"}"},"feature_names":["dur","proto","service","state","spkts","dpkts","sbytes","dbytes","rate","sttl","dttl","sload","dload","sloss","dloss","sinpkt","dinpkt","sjit","djit","swin","stcpb","dtcpb","dwin","tcprtt","synack","ackdat","smean","dmean","trans_depth","response_body_len","ct_srv_src","ct_state_ttl","ct_dst_ltm","ct_src_dport_ltm","ct_dst_sport_ltm","ct_dst_src_ltm","is_ftp_login","ct_ftp_cmd","ct_flw_http_mthd","ct_src_ltm","ct_srv_dst","is_sm_ips_ports"],"feature_types":["int","int","int","int","int","int","int","int","int","int","int","int","int","int","int","int","int","int","int","int","int","int","int","int","int","int","int","int","int","int","int","int","int","int","int","int","int","int","int","int","int","int"],"gradient_booster":{"model":{"gbtree_model_param":{"num_parallel_tree":"1","num_trees":"1000","size_leaf_vector":"0"},"tree_info":[0,1,2,3,4,5,6,7,8,9,0,1,2,3,4,5,6,7,8,9,0,1,2,3,4,5,6,7,8,9,0,1,2,3,4,5,6,7,8,9,0,1,2,3,4,5,6,7,8,9,0,1,2,3,4,5,6,7,8,9,0,1,2,3,4,5,6,7,8,9,0,1,2,3,4,5,6,7,8,9,0,1,2,3,4,5,6,7,8,9,0,1,2,3,4,5,6,7,8,9,0,1,2,3,4,5,6,7,8,9,0,1,2,3,4,5,6,7,8,9,0,1,2,3,4,5,6,7,8,9,0,1,2,3,4,5,6,7,8,9,0,1,2,3,4,5,6,7,8,9,0,1,2,3,4,5,6,7,8,9,0,1,2,3,4,5,6,7,8,9,0,1,2,3,4,5,6,7,8,9,0,1,2,3,4,5,6,7,8,9,0,1,2,3,4,5,6,7,8,9,0,1,2,3,4,5,6,7,8,9,0,1,2,3,4,5,6,7,8,9,0,1,2,3,4,5,6,7,8,9,0,1,2,3,4,5,6,7,8,9,0,1,2,3,4,5,6,7,8,9,0,1,2,3,4,5,6,7,8,9,0,1,2,3,4,5,6,7,8,9,0,1,2,3,4,5,6,7,8,9,0,1,2,3,4,5,6,7,8,9,0,1,2,3,4,5,6,7,8,9,0,1,2,3,4,5,6,7,8,9,0,1,2,3,4,5,6,7,8,9,0,1,2,3,4,5,6,7,8,9,0,1,2,3,4,5,6,7,8,9,0,1,2,3,4,5,6,7,8,9,0,1,2,3,4,5,6,7,8,9,0,1,2,3,4,5,6,7,8,9,0,1,2,3,4,5,6,7,8,9,0,1,2,3,4,5,6,7,8,9,0,1,2,3,4,5,6,7,8,9,0,1,2,3,4,5,6,7,8,9,0,1,2,3,4,5,6,7,8,9,0,1,2,3,4,5,6,7,8,9,0,1,2,3,4,5,6,7,8,9,0,1,2,3,4,5,6,7,8,9,0,1,2,3,4,5,6,7,8,9,0,1,2,3,4,5,6,7,8,9,0,1,2,3,4,5,6,7,8,9,0,1,2,3,4,5,6,7,8,9,0,1,2,3,4,5,6,7,8,9,0,1,2,3,4,5,6,7,8,9,0,1,2,3,4,5,6,7,8,9,0,1,2,3,4,5,6,7,8,9,0,1,2,3,4,5,6,7,8,9,0,1,2,3,4,5,6,7,8,9,0,1,2,3,4,5,6,7,8,9,0,1,2,3,4,5,6,7,8,9,0,1,2,3,4,5,6,7,8,9,0,1,2,3,4,5,6,7,8,9,0,1,2,3,4,5,6,7,8,9,0,1,2,3,4,5,6,7,8,9,0,1,2,3,4,5,6,7,8,9,0,1,2,3,4,5,6,7,8,9,0,1,2,3,4,5,6,7,8,9,0,1,2,3,4,5,6,7,8,9,0,1,2,3,4,5,6,7,8,9,0,1,2,3,4,5,6,7,8,9,0,1,2,3,4,5,6,7,8,9,0,1,2,3,4,5,6,7,8,9,0,1,2,3,4,5,6,7,8,9,0,1,2,3,4,5,6,7,8,9,0,1,2,3,4,5,6,7,8,9,0,1,2,3,4,5,6,7,8,9,0,1,2,3,4,5,6,7,8,9,0,1,2,3,4,5,6,7,8,9,0,1,2,3,4,5,6,7,8,9,0,1,2,3,4,5,6,7,8,9,0,1,2,3,4,5,6,7,8,9,0,1,2,3,4,5,6,7,8,9,0,1,2,3,4,5,6,7,8,9,0,1,2,3,4,5,6,7,8,9,0,1,2,3,4,5,6,7,8,9,0,1,2,3,4,5,6,7,8,9,0,1,2,3,4,5,6,7,8,9,0,1,2,3,4,5,6,7,8,9,0,1,2,3,4,5,6,7,8,9,0,1,2,3,4,5,6,7,8,9,0,1,2,3,4,5,6,7,8,9,0,1,2,3,4,5,6,7,8,9,0,1,2,3,4,5,6,7,8,9,0,1,2,3,4,5,6,7,8,9,0,1,2,3,4,5,6,7,8,9,0,1,2,3,4,5,6,7,8,9,0,1,2,3,4,5,6,7,8,9,0,1,2,3,4,5,6,7,8,9,0,1,2,3,4,5,6,7,8,9,0,1,2,3,4,5,6,7,8,9,0,1,2,3,4,5,6,7,8,9,0,1,2,3,4,5,6,7,8,9,0,1,2,3,4,5,6,7,8,9],"trees":[{"base_weights":[-5.0983894E-1,-2.2519049E-1,-5.312133E-1,-3.8172552E-1,1.7429937E-1,-5.4993314E-1,-1.82268E-1,-5.189011E-1,-2.4596262E-1,-1.4081362E-1,2.3024993E-1,-5.5396594E-2,-5.339908E-1,-4.0369418E-1,2.3016967E-1,-5.265329E-1,-5.6179795E-2,-2.5588205E-1,2.1028036E-2,-2.893591E-1,2.2058822E-2,2.3711508E-2,-4.3227684E-2,-4.4391304E-1,-5.5437917E-1,-4.4101334E-1,2.2365427E-2,-4.3227684E-2,2.371048E-2,-5.3183235E-2,7.3891613E-3,-2.1739133E-2,1.7045453E-2,-4.8726957E-2,-2.3996085E-2,-4.393306E-2,-2.5387872E-2,-2.0361993E-2,1.7045453E-2,9.1029026E-2,-5.5434972E-2,-1.330461E-9,-5.548389E-2,-2.9782996E-2,-5.41502E-2,-2.0361993E-2,1.7045453E-2],"categories":[],"categories_nodes":[],"categories_segments":[],"categories_sizes":[],"default_left":[0,0,0,0,0,0,0,0,0,0,0,0,0,0,0,0,0,0,0,0,0,0,0,0,0,0,0,0,0,0,0,0,0,0,0,0,0,0,0,0,0,0,0,0,0,0,0],"id":0,"left_children":[1,3,5,7,9,11,13,15,17,19,21,-1,23,25,27,29,31,33,-1,35,-1,-1,37,39,41,43,-1,45,-1,-1,-1,-1,-1,-1,-1,-1,-1,-1,-1,-1,-1,-1,-1,-1,-1,-1,-1],"loss_changes":[9.005249E1,6.4908195E1,8.994531E1,1.3752342E1,5.1911793E0,5.45166E-1,6.432692E1,1.2763901E0,1.7576332E0,2.4656782E0,4.7747612E-1,0E0,4.6555786E0,1.0821846E1,4.7732162E-1,1.1965714E0,2.9719213E-1,1.2421665E0,0E0,5.9481382E-2,0E0,0E0,2.7256233E-1,7.492555E1,5.5371094E-1,6.0636826E0,0E0,2.7256233E-1,0E0,0E0,0E0,0E0,0E0,0E0,0E0,0E0,0E0,0E0,0E0,0E0,0E0,0E0,0E0,0E0,0E0,0E0,0E0],"parents":[2147483647,0,0,1,1,2,2,3,3,4,4,5,5,6,6,7,7,8,8,9,9,10,10,12,12,13,13,14,14,15,15,16,16,17,17,19,19,22,22,23,23,24,24,25,25,27,27],"right_children":[2,4,6,8,10,12,14,16,18,20,22,-1,24,26,28,30,32,34,-1,36,-1,-1,38,40,42,44,-1,46,-1,-1,-1,-1,-1,-1,-1,-1,-1,-1,-1,-1,-1,-1,-1,-1,-1,-1,-1],"split_conditions":[1.11E2,8E0,1.18E2,2E0,5.4E1,7.6E1,9E0,9.9E1,6E0,1.2E1,8E0,-5.5396594E-2,5.44E2,1E1,6.9E1,2E0,2E0,4.1E1,2.1028036E-2,9E0,2.2058822E-2,2.3711508E-2,4E0,1E0,3.94E2,5E0,2.2365427E-2,4E0,2.371048E-2,-5.3183235E-2,7.3891613E-3,-2.1739133E-2,1.7045453E-2,-4.8726957E-2,-2.3996085E-2,-4.393306E-2,-2.5387872E-2,-2.0361993E-2,1.7045453E-2,9.1029026E-2,-5.5434972E-2,-1.330461E-9,-5.548389E-2,-2.9782996E-2,-5.41502E-2,-2.0361993E-2,1.7045453E-2],"split_indices":[1,40,1,35,26,27,30,1,32,30,32,0,7,0,6,33,30,26,0,32,0,0,0,2,8,35,0,0,0,0,0,0,0,0,0,0,0,0,0,0,0,0,0,0,0,0,0],"split_type":[0,0,0,0,0,0,0,0,0,0,0,0,0,0,0,0,0,0,0,0,0,0,0,0,0,0,0,0,0,0,0,0,0,0,0,0,0,0,0,0,0,0,0,0,0,0,0],"sum_hessian":[1.481976E4,1.0358999E3,1.3783859E4,7.443E2,2.9159998E2,1.3081499E4,7.0236E2,3.6881998E2,3.7547998E2,4.3739998E1,2.4785999E2,1.041354E4,2.66796E3,4.5702E2,2.4534E2,3.6269998E2,6.12E0,3.6791998E2,7.5599995E0,3.114E1,1.2599999E1,2.4191998E2,5.9399996E0,4.9661996E2,2.1713398E3,4.3163998E2,2.538E1,5.9399996E0,2.394E2,3.5963998E2,3.06E0,3.6E0,2.52E0,2.1779999E1,3.4613998E2,3.7799997E0,2.7359999E1,3.4199998E0,2.52E0,3.6899998E1,4.5971997E2,1.8E0,2.1695398E3,1.7964E2,2.5199998E2,3.4199998E0,2.52E0],"tree_param":{"num_deleted":"0","num_feature":"42","num_nodes":"47","size_leaf_vector":"0"}},{"base_weights":[-5.161814E-1,-5.306551E-1,-2.249204E-1,-2.8305528E-1,-5.502389E-1,-4.6919352E-1,2.3016967E-1,-4.7154364E-1,1.7038006E-1,3.0075186E-1,-5.50543E-1,-5.1035506E-1,2.2365427E-2,-4.3227684E-2,2.371048E-2,-4.9224126E-1,3.0019995E-2,-9.2431135E-2,2.3024993E-1,1.3114755E-1,-4.1237116E-2,-5.5069363E-1,-1.9662924E-1,-3.123956E-1,-5.406924E-1,-2.0361993E-2,1.7045453E-2,-5.158704E-2,-3.616409E-2,-2.6742304E-2,2.2532187E-2,-2.9247914E-2,1.04659E-2,2.3711508E-2,-4.3227687E-3,-5.2153528E-2,-5.5250045E-2,6.7307696E-2,-4.6357617E-2,-4.591621E-2,2.2058822E-2,1.7045453E-2,-5.4597862E-2],"categories":[],"categories_nodes":[],"categories_segments":[],"categories_sizes":[],"default_left":[0,0,0,0,0,0,0,0,0,0,0,0,0,0,0,0,0,0,0,0,0,0,0,0,0,0,0,0,0,0,0,0,0,0,0,0,0,0,0,0,0,0,0],"id":1,"left_children":[1,3,5,7,9,11,13,15,17,19,21,23,-1,25,-1,27,29,31,33,-1,-1,35,37,39,41,-1,-1,-1,-1,-1,-1,-1,-1,-1,-1,-1,-1,-1,-1,-1,-1,-1,-1],"loss_changes":[6.235962E1,6.830371E1,7.82979E1,8.870136E1,3.5510254E0,1.3176262E1,4.7732162E-1,7.621063E0,4.8234434E0,4.375312E0,5.8935547E-1,2.429329E0,0E0,2.7256233E-1,0E0,1.9850922E0,1.8018299E0,2.2913826E0,4.7747612E-1,0E0,0E0,4.008789E-1,1.96504E0,4.7837853E0,1.4981918E0,0E0,0E0,0E0,0E0,0E0,0E0,0E0,0E0,0E0,0E0,0E0,0E0,0E0,0E0,0E0,0E0,0E0,0E0],"parents":[2147483647,0,0,1,1,2,2,3,3,4,4,5,5,6,6,7,7,8,8,9,9,10,10,11,11,13,13,15,15,16,16,17,17,18,18,21,21,22,22,23,23,24,24],"right_children":[2,4,6,8,10,12,14,16,18,20,22,24,-1,26,-1,28,30,32,34,-1,-1,36,38,40,42,-1,-1,-1,-1,-1,-1,-1,-1,-1,-1,-1,-1,-1,-1,-1,-1,-1,-1],"split_conditions":[1.18E2,1.11E2,9E0,7E0,3E0,1E1,6.9E1,3E0,5.4E1,1E0,2E0,3E0,2.2365427E-2,4E0,2.371048E-2,4.24E2,4E0,1.1E1,8E0,1.3114755E-1,-4.1237116E-2,1.3E1,1.203E3,3E0,4.0605E4,-2.0361993E-2,1.7045453E-2,-5.158704E-2,-3.616409E-2,-2.6742304E-2,2.2532187E-2,-2.9247914E-2,1.04659E-2,2.3711508E-2,-4.3227687E-3,-5.2153528E-2,-5.5250045E-2,6.7307696E-2,-4.6357617E-2,-4.591621E-2,2.2058822E-2,1.7045453E-2,-5.4597862E-2],"split_indices":[1,1,30,40,26,0,6,33,26,32,28,35,0,0,0,6,30,0,32,0,0,26,24,30,8,0,0,0,0,0,0,0,0,0,0,0,0,0,0,0,0,0,0],"split_type":[0,0,0,0,0,0,0,0,0,0,0,0,0,0,0,0,0,0,0,0,0,0,0,0,0,0,0,0,0,0,0,0,0,0,0,0,0,0,0,0,0,0,0],"sum_hessian":[1.481976E4,1.4117399E4,7.0236E2,1.0358999E3,1.3081499E4,4.5702E2,2.4534E2,7.3169995E2,3.0419998E2,4.3199997E0,1.307718E4,4.3163998E2,2.538E1,5.9399996E0,2.394E2,7.0272E2,2.898E1,5.6339996E1,2.4785999E2,1.4399999E0,2.8799999E0,1.307106E4,6.12E0,5.8859997E1,3.7278E2,3.4199998E0,2.52E0,5.9256E2,1.10159996E2,1.1339999E1,1.764E1,2.772E1,2.8619999E1,2.4191998E2,5.9399996E0,7.7957996E2,1.22914795E4,1.0799999E0,5.04E0,4.626E1,1.2599999E1,2.52E0,3.7025998E2],"tree_param":{"num_deleted":"0","num_feature":"42","num_nodes":"43","size_leaf_vector":"0"}},{"base_weights":[-2.796213E-1,-3.5698098E-1,1.273601E0,9.1956794E-1,-4.5813113E-1,1.8167329E0,2.585857E-1,1.2112461E0,-5.52329E-2,-2.1093084E-1,-5.234199E-1,1.9096708E0,2.2365427E-2,9.6541786E-1,2.371048E-2,1.6034975E0,4.3745726E-1,-5.5403788E-2,-1.5784946E-1,-5.261957E-1,2.2972972E0,1.5339385E0,2.012177E-1,1.3800906E-1,1.7045453E-2,3.0343005E-2,1.6922304E-1,1.423782E-1,2.5837818E-2,-3.5724934E-2,-1.06985E-3,-4.3685216E-2,-5.414456E-2,4.0625E-1,-4.435484E-2,1.7734051E-1,2.2332504E-2],"categories":[],"categories_nodes":[],"categories_segments":[],"categories_sizes":[],"default_left":[0,0,0,0,0,0,0,0,0,0,0,0,0,0,0,0,0,0,0,0,0,0,0,0,0,0,0,0,0,0,0,0,0,0,0,0,0],"id":2,"left_children":[1,3,5,7,9,11,13,15,-1,17,19,21,-1,23,-1,25,27,-1,29,31,33,35,-1,-1,-1,-1,-1,-1,-1,-1,-1,-1,-1,-1,-1,-1,-1],"loss_changes":[1.7812694E3,1.823433E3,3.872837E2,4.4583118E2,2.1103345E2,6.738611E1,3.511366E0,2.6206152E2,0E0,4.9724342E1,8.223486E1,1.3576538E1,0E0,2.052525E0,0E0,6.571631E1,5.13141E1,0E0,6.953587E1,1.3850342E1,5.1925125E1,3.002835E1,0E0,0E0,0E0,0E0,0E0,0E0,0E0,0E0,0E0,0E0,0E0,0E0,0E0,0E0,0E0],"parents":[2147483647,0,0,1,1,2,2,3,3,4,4,5,5,6,6,7,7,9,9,10,10,11,11,13,13,15,15,16,16,18,18,19,19,20,20,21,21],"right_children":[2,4,6,8,10,12,14,16,-1,18,20,22,-1,24,-1,26,28,-1,30,32,34,36,-1,-1,-1,-1,-1,-1,-1,-1,-1,-1,-1,-1,-1,-1,-1],"split_conditions":[1.18E2,1.11E2,9E0,3.9485E4,1E0,1E1,6.9E1,8E0,-5.52329E-2,6E0,1.15E2,4E0,2.2365427E-2,4E0,2.371048E-2,9E0,5.4E1,-5.5403788E-2,1.3252E4,2E0,5E0,4E0,2.012177E-1,1.3800906E-1,1.7045453E-2,3.0343005E-2,1.6922304E-1,1.423782E-1,2.5837818E-2,-3.5724934E-2,-1.06985E-3,-4.3685216E-2,-5.414456E-2,4.0625E-1,-4.435484E-2,1.7734051E-1,2.2332504E-2],"split_indices":[1,1,30,15,40,0,6,40,0,9,13,35,0,0,0,26,26,0,12,40,27,30,0,0,0,0,0,0,0,0,0,0,0,0,0,0,0],"split_type":[0,0,0,0,0,0,0,0,0,0,0,0,0,0,0,0,0,0,0,0,0,0,0,0,0,0,0,0,0,0,0,0,0,0,0,0,0],"sum_hessian":[1.481976E4,1.4117399E4,7.0236E2,1.0358999E3,1.3081499E4,4.5702E2,2.4534E2,8.6472E2,1.7118E2,2.7340198E3,1.03474795E4,4.3163998E2,2.538E1,5.9399996E0,2.394E2,5.7312E2,2.9159998E2,3.6503998E2,2.36898E3,1.0338119E4,9.36E0,9.5939995E1,3.3569998E2,3.4199998E0,2.52E0,3.6899998E1,5.3622E2,4.3739998E1,2.4785999E2,1.0052999E3,1.3636799E3,1.5116399E3,8.8264795E3,5.3999996E0,3.9599998E0,8.082E1,1.5119999E1],"tree_param":{"num_deleted":"0","num_feature":"42","num_nodes":"37","size_leaf_vector":"0"}},{"base_weights":[1.955905E-1,1.6953802E0,-1.8387894E-1,-1.2332326E-1,2.5069828E0,-2.8481227E-1,1.4139403E0,7.1696115E-1,-4.2675576E-1,1.3359312E0,4.130134E0,1.1680565E0,-3.9422217E-1,1.6153914E0,1.0339369E-1,-5.5129584E-2,2.1342514E0,-5.2010006E-1,3.5841802E-1,2.6952424E0,5.361143E-1,4.429614E0,1.4757216E0,-3.683269E-1,1.310832E0,1.2405622E-1,-4.8325226E-1,1.6503192E0,9.8180436E-2,1.9455798E-1,2.770438E-1,-5.24953E-2,8.0152676E-2,1.1556239E-2,2.0852017E-1,1.9357511E-1,3.4851277E-1,-2.814741E-3,1.9839332E-1,3.9891088E-1,4.7472262E-1,5.860716E-2,2.1774195E-1,-5.4621853E-2,9.1121495E-2,1.4844492E-1,1.05604924E-1,-1.339286E-2,1.0471567E-1,-3.4163564E-3,-5.0751176E-2,1.4899565E-1,1.6914168E-1],"categories":[],"categories_nodes":[],"categories_segments":[],"categories_sizes":[],"default_left":[0,0,0,0,0,0,0,0,0,0,0,0,0,0,0,0,0,0,0,0,0,0,0,0,0,0,0,0,0,0,0,0,0,0,0,0,0,0,0,0,0,0,0,0,0,0,0,0,0,0,0,0,0],"id":3,"left_children":[1,3,5,7,9,11,13,15,17,19,21,23,25,27,-1,-1,29,31,33,35,37,39,41,43,45,47,49,51,-1,-1,-1,-1,-1,-1,-1,-1,-1,-1,-1,-1,-1,-1,-1,-1,-1,-1,-1,-1,-1,-1,-1,-1,-1],"loss_changes":[8.435167E3,4.4178447E3,1.9081001E3,2.3599985E2,3.9279443E3,1.7691855E3,5.2145996E1,4.426756E2,5.0008507E1,1.3070872E3,6.8251953E2,1.7147241E2,4.7756372E2,8.50769E0,0E0,0E0,8.557373E0,4.3201294E0,3.029676E1,2.6057397E2,6.201036E2,8.997168E1,5.452072E1,1.5761905E1,2.9991089E1,3.616124E2,9.619995E1,3.2873535E-1,0E0,0E0,0E0,0E0,0E0,0E0,0E0,0E0,0E0,0E0,0E0,0E0,0E0,0E0,0E0,0E0,0E0,0E0,0E0,0E0,0E0,0E0,0E0,0E0,0E0],"parents":[2147483647,0,0,1,1,2,2,3,3,4,4,5,5,6,6,7,7,8,8,9,9,10,10,11,11,12,12,13,13,16,16,17,17,18,18,19,19,20,20,21,21,22,22,23,23,24,24,25,25,26,26,27,27],"right_children":[2,4,6,8,10,12,14,16,18,20,22,24,26,28,-1,-1,30,32,34,36,38,40,42,44,46,48,50,52,-1,-1,-1,-1,-1,-1,-1,-1,-1,-1,-1,-1,-1,-1,-1,-1,-1,-1,-1,-1,-1,-1,-1,-1,-1],"split_conditions":[1E0,4E0,1.18E2,1.07E2,5.64E2,1.11E2,9E0,7E0,4.1818E4,1.896E4,9E0,1.44E2,2E0,1E1,1.0339369E-1,-5.5129584E-2,2.54E3,1E0,1.055E3,4.24E2,4E0,6E0,9.54E2,3E0,8E0,6.03E2,2E0,4E0,9.8180436E-2,1.9455798E-1,2.770438E-1,-5.24953E-2,8.0152676E-2,1.1556239E-2,2.0852017E-1,1.9357511E-1,3.4851277E-1,-2.814741E-3,1.9839332E-1,3.9891088E-1,4.7472262E-1,5.860716E-2,2.1774195E-1,-5.4621853E-2,9.1121495E-2,1.4844492E-1,1.05604924E-1,-1.339286E-2,1.0471567E-1,-3.4163564E-3,-5.0751176E-2,1.4899565E-1,1.6914168E-1],"split_indices":[40,10,1,1,7,1,30,1,11,0,9,8,40,0,0,0,6,34,6,6,2,13,7,30,40,7,30,35,0,0,0,0,0,0,0,0,0,0,0,0,0,0,0,0,0,0,0,0,0,0,0,0,0],"split_type":[0,0,0,0,0,0,0,0,0,0,0,0,0,0,0,0,0,0,0,0,0,0,0,0,0,0,0,0,0,0,0,0,0,0,0,0,0,0,0,0,0,0,0,0,0,0,0,0,0,0,0,0,0],"sum_hessian":[1.481976E4,2.9917798E3,1.18279795E4,9.2339996E2,2.06838E3,1.11259795E4,7.02E2,2.4462E2,6.7877997E2,1.20258E3,8.658E2,7.7849994E2,1.03474795E4,4.5665997E2,2.4534E2,1.2942E2,1.152E2,6.0695996E2,7.182E1,4.4459998E2,7.5798E2,7.7742E2,8.838E1,6.606E1,7.1243994E2,1.51686E3,8.830619E3,4.3127997E2,2.538E1,9.1979996E1,2.322E1,6.0533997E2,1.6199999E0,6.3899998E1,7.9199996E0,2.2841998E2,2.1618E2,5.4612E2,2.1185999E2,3.3137997E2,4.4603998E2,3.978E1,4.86E1,5.8499996E1,7.5599995E0,4.2084E2,2.9159998E2,1.1862E3,3.3065997E2,4.5269998E2,8.37792E3,9.5579994E1,3.3569998E2],"tree_param":{"num_deleted":"0","num_feature":"42","num_nodes":"53","size_leaf_vector":"0"}},{"base_weights":[-1.4649723E-1,-5.5524983E-2,6.714386E-2,-4.595229E-1,4.6020412E-1,8.223628E-2,-5.523027E-1,-2.7931446E-1,6.739996E-1,1.5941732E0,-2.0536727E-1,-5.53425E-1,8.426964E-2,-4.2766967E-1,1.8943664E-1,2.6048007E0,3.719198E-1,-1.9251151E-2,3.9727664E-1,-5.0630655E-2,3.654691E-2,-5.5370476E-2,-2.6315792E-2,-4.6075087E-2,1.460177E-1,-4.4001017E-2,3.203593E-1,7.159324E-2,-3.7399154E-2,6.501039E-2,3.8700408E-1,-2.060644E-2,7.11981E-2],"categories":[],"categories_nodes":[],"categories_segments":[],"categories_sizes":[],"default_left":[0,0,0,0,0,0,0,0,0,0,0,0,0,0,0,0,0,0,0,0,0,0,0,0,0,0,0,0,0,0,0,0,0],"id":4,"left_children":[1,-1,3,5,7,9,11,13,15,17,19,21,23,25,27,29,31,-1,-1,-1,-1,-1,-1,-1,-1,-1,-1,-1,-1,-1,-1,-1,-1],"loss_changes":[1.2942803E3,0E0,2.0153303E3,2.0917609E2,8.815801E2,2.6523965E2,2.5845947E0,8.7072105E1,2.5214846E3,4.1503497E2,8.826714E1,1.4221191E-1,6.0120497E0,4.4002945E1,8.968174E1,1.444085E3,7.3541266E2,0E0,0E0,0E0,0E0,0E0,0E0,0E0,0E0,0E0,0E0,0E0,0E0,0E0,0E0,0E0,0E0],"parents":[2147483647,0,0,2,2,3,3,4,4,5,5,6,6,7,7,8,8,9,9,10,10,11,11,12,12,13,13,14,14,15,15,16,16],"right_children":[2,-1,4,6,8,10,12,14,16,18,20,22,24,26,28,30,32,-1,-1,-1,-1,-1,-1,-1,-1,-1,-1,-1,-1,-1,-1,-1,-1],"split_conditions":[9E0,-5.5524983E-2,5.9E1,1.5E1,1E0,1E0,4.7E1,1.62E2,1E0,2E0,1E0,5.6E1,3E0,7.9E1,1.5465E4,2E0,1E0,-1.9251151E-2,3.9727664E-1,-5.0630655E-2,3.654691E-2,-5.5370476E-2,-2.6315792E-2,-4.6075087E-2,1.460177E-1,-4.4001017E-2,3.203593E-1,7.159324E-2,-3.7399154E-2,6.501039E-2,3.8700408E-1,-2.060644E-2,7.11981E-2],"split_indices":[9,0,6,26,40,35,26,7,35,40,33,35,33,4,12,30,33,0,0,0,0,0,0,0,0,0,0,0,0,0,0,0,0],"split_type":[0,0,0,0,0,0,0,0,0,0,0,0,0,0,0,0,0,0,0,0,0,0,0,0,0,0,0,0,0,0,0,0,0],"sum_hessian":[1.481976E4,5.08644E3,9.733319E3,4.1596196E3,5.5736997E3,6.0822E2,3.5514E3,1.2499199E3,4.32378E3,9.6479996E1,5.1174E2,3.5452798E3,6.12E0,9.4949994E2,3.0041998E2,5.8392E2,3.7398599E3,5.562E1,4.0859997E1,3.3515997E2,1.7657999E2,3.54096E3,4.3199997E0,4.8599997E0,1.26E0,9.4716E2,2.34E0,1.5515999E2,1.4526E2,2.3004E2,3.5387997E2,1.38546E3,2.3544E3],"tree_param":{"num_deleted":"0","num_feature":"42","num_nodes":"33","size_leaf_vector":"0"}},{"base_weights":[7.177635E-1,3.909007E0,-4.9094722E-1,-5.2720237E-1,4.984742E0,-3.8237667E-1,-5.29188E-1,-5.3454494E-1,2.1028036E-2,4.9963303E0,-2.4390246E-1,-4.9648073E-1,-2.0134848E-1,-5.3019E-1,2.9508197E-1,-5.356778E-1,-3.1250003E-1,1.9230768E-2,4.9978587E-1,3.020134E-2,-4.6623796E-2,-5.1847124E-1,1.1790101E-1,-2.254327E-1,2.5103734E0,-4.836264E-1,-5.4004866E-1,-5.0838616E-2,-5.5040516E-2,3.8167927E-3,-4.393306E-2,-5.2300137E-2,-1.2690375E-3,-2.3900576E-2,2.1973096E-1,-2.944622E-2,5.5606198E-2,3.262032E-1,-6.3291155E-3,-4.871237E-2,1.5648855E-1,-5.407768E-2,-2.2208886E-2],"categories":[],"categories_nodes":[],"categories_segments":[],"categories_sizes":[],"default_left":[0,0,0,0,0,0,0,0,0,0,0,0,0,0,0,0,0,0,0,0,0,0,0,0,0,0,0,0,0,0,0,0,0,0,0,0,0,0,0,0,0,0,0],"id":5,"left_children":[1,3,5,7,9,11,13,15,-1,17,19,21,23,25,-1,27,29,-1,-1,-1,-1,31,33,35,37,39,41,-1,-1,-1,-1,-1,-1,-1,-1,-1,-1,-1,-1,-1,-1,-1,-1],"loss_changes":[5.716989E4,1.9432684E4,4.443091E1,4.420166E0,1.9976562E2,5.7815002E1,2.9277344E1,3.0822754E-2,0E0,2.3039062E1,1.1360972E0,2.328714E1,7.147131E1,3.3864746E0,0E0,3.4713745E-2,3.0141097E-1,0E0,0E0,0E0,0E0,3.7965698E0,4.5217735E1,5.8265938E1,1.885521E1,1.07777405E1,1.3961182E0,0E0,0E0,0E0,0E0,0E0,0E0,0E0,0E0,0E0,0E0,0E0,0E0,0E0,0E0,0E0,0E0],"parents":[2147483647,0,0,1,1,2,2,3,3,4,4,5,5,6,6,7,7,9,9,10,10,11,11,12,12,13,13,15,15,16,16,21,21,22,22,23,23,24,24,25,25,26,26],"right_children":[2,4,6,8,10,12,14,16,-1,18,20,22,24,26,-1,28,30,-1,-1,-1,-1,32,34,36,38,40,42,-1,-1,-1,-1,-1,-1,-1,-1,-1,-1,-1,-1,-1,-1,-1,-1],"split_conditions":[3.4E1,1E0,1E0,5E0,2E1,5.8E1,1.2E1,2.1E1,2.1028036E-2,2.7E1,2.2E1,1.068E3,8.83E2,2E0,2.9508197E-1,2E0,1.2E1,1.9230768E-2,4.9978587E-1,3.020134E-2,-4.6623796E-2,8E0,2.8E1,1.12E2,3E0,2E0,2.6E1,-5.0838616E-2,-5.5040516E-2,3.8167927E-3,-4.393306E-2,-5.2300137E-2,-1.2690375E-3,-2.3900576E-2,2.1973096E-1,-2.944622E-2,5.5606198E-2,3.262032E-1,-6.3291155E-3,-4.871237E-2,1.5648855E-1,-5.407768E-2,-2.2208886E-2],"split_indices":[6,2,40,34,26,26,2,26,0,6,26,27,29,30,0,40,0,0,0,0,0,2,26,1,13,33,39,0,0,0,0,0,0,0,0,0,0,0,0,0,0,0,0],"split_type":[0,0,0,0,0,0,0,0,0,0,0,0,0,0,0,0,0,0,0,0,0,0,0,0,0,0,0,0,0,0,0,0,0,0,0,0,0,0,0,0,0,0,0],"sum_hessian":[1.481976E4,4.0705198E3,1.0749239E4,7.9451996E2,3.2759998E3,2.8027798E3,7.9464595E3,7.8695996E2,7.5599995E0,3.2687998E3,7.2E0,1.7181E3,1.0846799E3,7.9450195E3,1.4399999E0,7.8155994E2,5.3999996E0,1.0799999E0,3.26772E3,1.9799999E0,5.22E0,1.6588799E3,5.9219997E1,1.0760399E3,8.639999E0,1.39698E3,6.5480396E3,2.8637997E2,4.9518E2,1.6199999E0,3.7799997E0,1.6441199E3,1.4759999E1,5.13E1,7.9199996E0,9.8927997E2,8.6759995E1,6.4799995E0,2.1599998E0,1.39536E3,1.6199999E0,6.53238E3,1.5659999E1],"tree_param":{"num_deleted":"0","num_feature":"42","num_nodes":"43","size_leaf_vector":"0"}},{"base_weights":[1.9409801E0,4.9795027E0,1.0975088E0,4.992529E0,-4.9065422E-2,2.5245112E-1,2.6871881E0,3.6740332E0,4.9984357E-1,4.0425286E0,-7.938652E-2,7.349711E-1,3.951879E0,4.6594006E-1,-4.298643E-2,2.6231415E0,4.712004E0,-2.665911E-1,2.1972501E0,1.9387296E0,2.6420125E-1,4.1908855E0,-3.0662182E-1,3.652393E-2,3.1702718E-1,8.609272E-2,4.757448E-1,-3.4581248E-2,3.914858E-1,4.6505244E-5,3.687631E-1,2.2726345E-1,-5.2670628E-2,6.1595794E-2,-4.8290018E-2,-5.3724464E-2,4.2518497E-1,-3.9254565E-2,1.6549297E-1],"categories":[],"categories_nodes":[],"categories_segments":[],"categories_sizes":[],"default_left":[0,0,0,0,0,0,0,0,0,0,0,0,0,0,0,0,0,0,0,0,0,0,0,0,0,0,0,0,0,0,0,0,0,0,0,0,0,0,0],"id":6,"left_children":[1,3,5,7,-1,9,11,13,-1,15,17,19,21,-1,-1,23,25,27,29,31,33,35,37,-1,-1,-1,-1,-1,-1,-1,-1,-1,-1,-1,-1,-1,-1,-1,-1],"loss_changes":[3.7978754E4,2.3189062E2,1.5584869E4,6.6484375E0,0E0,9.528732E3,9.938822E3,7.519655E1,0E0,5.6723145E2,2.9699756E3,8.972883E2,2.4882227E3,0E0,0E0,2.4312354E2,6.821777E1,2.1342378E3,1.73354E3,3.6772803E2,2.9989758E2,6.691836E2,2.269181E1,0E0,0E0,0E0,0E0,0E0,0E0,0E0,0E0,0E0,0E0,0E0,0E0,0E0,0E0,0E0,0E0],"parents":[2147483647,0,0,1,1,2,2,3,3,5,5,6,6,7,7,9,9,10,10,11,11,12,12,15,15,16,16,17,17,18,18,19,19,20,20,21,21,22,22],"right_children":[2,4,6,8,-1,10,12,14,-1,16,18,20,22,-1,-1,24,26,28,30,32,34,36,38,-1,-1,-1,-1,-1,-1,-1,-1,-1,-1,-1,-1,-1,-1,-1,-1],"split_conditions":[7E0,4E0,6.724E3,1E0,-4.9065422E-2,2.7E1,1E0,1E0,4.9984357E-1,2E0,4.44E2,5.661E3,6.03E2,4.6594006E-1,-4.298643E-2,4.0607E4,9.9E1,5E0,1E0,6.03E2,6.58E2,2E2,1.089E3,3.652393E-2,3.1702718E-1,8.609272E-2,4.757448E-1,-3.4581248E-2,3.914858E-1,4.6505244E-5,3.687631E-1,2.2726345E-1,-5.2670628E-2,6.1595794E-2,-4.8290018E-2,-5.3724464E-2,4.2518497E-1,-3.9254565E-2,1.6549297E-1],"split_indices":[9,34,23,15,0,6,35,0,0,35,26,8,7,0,0,8,1,3,35,7,7,6,26,0,0,0,0,0,0,0,0,0,0,0,0,0,0,0,0],"split_type":[0,0,0,0,0,0,0,0,0,0,0,0,0,0,0,0,0,0,0,0,0,0,0,0,0,0,0,0,0,0,0,0,0,0,0,0,0,0,0],"sum_hessian":[1.481976E4,3.21894E3,1.1600819E4,3.21138E3,7.5599995E0,7.5751196E3,4.0256997E3,1.7099998E1,3.1942798E3,6.0894E2,6.9661797E3,1.5832799E3,2.44242E3,1.3679999E1,3.4199998E0,1.9673999E2,4.1219998E2,6.4376997E3,5.2848E2,4.4424E2,1.1390399E3,2.31264E3,1.2978E2,3.8699997E1,1.5804E2,5.04E0,4.0715997E2,6.3189E3,1.18799995E2,2.1401999E2,3.1446E2,3.9131998E2,5.292E1,7.7454E2,3.6449997E2,2.9339998E1,2.2832998E3,1.2509999E2,4.68E0],"tree_param":{"num_deleted":"0","num_feature":"42","num_nodes":"39","size_leaf_vector":"0"}},{"base_weights":[-3.1963277E-1,2.899979E-1,-4.7384477E-1,1.7632067E0,-3.0700564E-1,9.675796E-2,-4.936635E-1,-5.040267E-1,3.3792899E0,2.6899332E-1,-5.5117536E-1,1.9031072E0,-4.905999E-1,-4.3512237E-1,-5.3403E-1,-5.5303928E-2,-4.2331815E-1,-2.6689133E-1,4.418842E0,1.0558696E0,-4.3757087E-1,-2.3364505E-2,-5.538394E-1,3.1892333E0,-2.4773577E-1,1.7584974E-2,-5.5348217E-2,-3.1137934E-1,-5.391701E-1,-5.4454166E-1,-3.8458106E-1,-2.3021907E-2,-5.0838687E-2,-4.3940797E-2,3.0633804E-1,4.8909336E-1,-4.280918E-2,5.966238E-3,1.8829904E-1,-1.287129E-2,-4.9062155E-2,-4.03226E-3,-1.6196914E-9,-2.2959186E-2,-5.551808E-2,-5.214724E-2,4.4347826E-1,-4.3836523E-2,4.8780486E-2,3.522505E-2,-4.495913E-2,3.7024315E-2,-4.1872993E-2,-5.0768882E-2,-5.5089593E-2,-4.6559986E-2,-5.4862827E-2,-2.5965381E-2,-5.4751318E-2],"categories":[],"categories_nodes":[],"categories_segments":[],"categories_sizes":[],"default_left":[0,0,0,0,0,0,0,0,0,0,0,0,0,0,0,0,0,0,0,0,0,0,0,0,0,0,0,0,0,0,0,0,0,0,0,0,0,0,0,0,0,0,0,0,0,0,0,0,0,0,0,0,0,0,0,0,0,0,0],"id":7,"left_children":[1,3,5,7,9,11,13,15,17,19,21,23,25,27,29,-1,31,33,35,37,39,41,43,45,47,49,-1,51,53,55,57,-1,-1,-1,-1,-1,-1,-1,-1,-1,-1,-1,-1,-1,-1,-1,-1,-1,-1,-1,-1,-1,-1,-1,-1,-1,-1,-1,-1],"loss_changes":[1.393472E3,2.6327239E3,1.3381714E2,3.164501E3,2.9979614E2,4.2309494E2,2.6782959E1,1.1903458E0,1.911917E3,3.534862E2,2.0914612E0,2.7144046E2,9.630341E0,5.997339E1,1.041333E1,0E0,2.187952E0,6.614126E1,8.997988E2,2.4765955E2,5.4301224E0,3.391618E-3,5.201721E-1,2.8563306E2,5.4775352E0,5.492955E0,0E0,1.5645013E2,6.5649414E-1,1.7819824E0,8.971832E0,0E0,0E0,0E0,0E0,0E0,0E0,0E0,0E0,0E0,0E0,0E0,0E0,0E0,0E0,0E0,0E0,0E0,0E0,0E0,0E0,0E0,0E0,0E0,0E0,0E0,0E0,0E0,0E0],"parents":[2147483647,0,0,1,1,2,2,3,3,4,4,5,5,6,6,7,7,8,8,9,9,10,10,11,11,12,12,13,13,14,14,16,16,17,17,18,18,19,19,20,20,21,21,22,22,23,23,24,24,25,25,27,27,28,28,29,29,30,30],"right_children":[2,4,6,8,10,12,14,16,18,20,22,24,26,28,30,-1,32,34,36,38,40,42,44,46,48,50,-1,52,54,56,58,-1,-1,-1,-1,-1,-1,-1,-1,-1,-1,-1,-1,-1,-1,-1,-1,-1,-1,-1,-1,-1,-1,-1,-1,-1,-1,-1,-1],"split_conditions":[1E0,2.44E2,1E0,1.8E1,7.4E1,6E0,2E0,8E0,5.3E1,6.5E1,9.6E1,2.44E2,7E0,6E0,1.18E2,-5.5303928E-2,1.4E1,3E0,4.7E1,4E0,9.6E1,2.8184E4,2.6E2,1.8E1,1E0,4.76E2,-5.5348217E-2,1E0,2E0,9.9E1,9E0,-2.3021907E-2,-5.0838687E-2,-4.3940797E-2,3.0633804E-1,4.8909336E-1,-4.280918E-2,5.966238E-3,1.8829904E-1,-1.287129E-2,-4.9062155E-2,-4.03226E-3,-1.6196914E-9,-2.2959186E-2,-5.551808E-2,-5.214724E-2,4.4347826E-1,-4.3836523E-2,4.8780486E-2,3.522505E-2,-4.495913E-2,3.7024315E-2,-4.1872993E-2,-5.0768882E-2,-5.5089593E-2,-4.6559986E-2,-5.4862827E-2,-2.5965381E-2,-5.4751318E-2],"split_indices":[40,6,30,26,7,27,32,9,6,26,1,6,27,27,1,0,26,2,26,2,1,11,6,26,2,6,0,35,40,1,30,0,0,0,0,0,0,0,0,0,0,0,0,0,0,0,0,0,0,0,0,0,0,0,0,0,0,0,0],"split_type":[0,0,0,0,0,0,0,0,0,0,0,0,0,0,0,0,0,0,0,0,0,0,0,0,0,0,0,0,0,0,0,0,0,0,0,0,0,0,0,0,0,0,0,0,0,0,0,0,0,0,0,0,0,0,0,0,0,0,0],"sum_hessian":[1.481976E4,2.9917798E3,1.18279795E4,8.6219995E2,2.1295798E3,3.969E2,1.1431079E4,3.5909998E2,5.0309998E2,6.3395996E2,1.49562E3,9.684E1,3.0006E2,4.6700996E3,6.7609795E3,2.1977998E2,1.3931999E2,1.1178E2,3.9131998E2,2.9969998E2,3.3425998E2,7.5599995E0,1.4880599E3,6.03E1,3.6539997E1,3.312E1,2.6694E2,2.13498E3,2.5351199E3,6.3142197E3,4.4675998E2,4.3739998E1,9.5579994E1,1.071E2,4.68E0,3.5658E2,3.4739998E1,1.3643999E2,1.6326E2,4.9499996E1,2.8475998E2,3.9599998E0,3.6E0,6.8399997E0,1.48122E3,1.5299999E1,4.4999996E1,2.9339998E1,7.2E0,1.9439999E1,1.3679999E1,2.9015997E2,1.84482E3,7.0001996E2,1.8351E3,3.1643997E2,5.99778E3,2.5434E2,1.9242E2],"tree_param":{"num_deleted":"0","num_feature":"42","num_nodes":"59","size_leaf_vector":"0"}},{"base_weights":[-5.300133E-1,-4.6181145E-1,-5.4722387E-1,-4.965163E-1,8.714154E-3,-4.6619758E-1,-5.499962E-1,-4.1418895E-1,-5.5460197E-1,-4.1940793E-1,6.1423916E-1,-2.873737E-1,-5.5346955E-2,-5.3053105E-1,-5.5391695E-2,-4.7170675E-1,-2.3297238E-1,-5.5521484E-2,1.9230768E-2,-3.164559E-2,-5.494506E-2,2.5494072E0,-1.8975027E-1,-1.2056004E-1,-5.1027644E-2,-4.4108635E-1,-5.5518944E-2,-4.8852414E-2,-2.5170917E-2,1.2192263E-1,-4.321487E-2,-5.281343E-2,7.860616E-2,-3.4351148E-2,2.7618244E-1,5.722071E-2,-4.1892458E-2,-2.6315793E-2,2.2850679E-1,-3.1142533E-2,-4.820593E-2],"categories":[],"categories_nodes":[],"categories_segments":[],"categories_sizes":[],"default_left":[0,0,0,0,0,0,0,0,0,0,0,0,0,0,0,0,0,0,0,0,0,0,0,0,0,0,0,0,0,0,0,0,0,0,0,0,0,0,0,0,0],"id":8,"left_children":[1,3,5,7,9,11,13,15,17,19,21,23,-1,25,-1,27,29,-1,-1,31,-1,33,35,37,-1,39,-1,-1,-1,-1,-1,-1,-1,-1,-1,-1,-1,-1,-1,-1,-1],"loss_changes":[1.7143555E1,4.8874878E1,2.4013672E0,1.3098877E1,5.3805943E1,6.0506973E0,5.786133E-1,1.194931E1,8.534241E-1,6.1143684E0,1.3422499E2,4.868231E0,0E0,4.034607E0,0E0,3.122635E0,8.172332E1,0E0,0E0,1.3244188E1,0E0,1.6495728E1,1.10068445E1,2.706324E1,0E0,2.103363E0,0E0,0E0,0E0,0E0,0E0,0E0,0E0,0E0,0E0,0E0,0E0,0E0,0E0,0E0,0E0],"parents":[2147483647,0,0,1,1,2,2,3,3,4,4,5,5,6,6,7,7,8,8,9,9,10,10,11,11,13,13,15,15,16,16,19,19,21,21,22,22,23,23,25,25],"right_children":[2,4,6,8,10,12,14,16,18,20,22,24,-1,26,-1,28,30,-1,-1,32,-1,34,36,38,-1,40,-1,-1,-1,-1,-1,-1,-1,-1,-1,-1,-1,-1,-1,-1,-1],"split_conditions":[1E0,4.143E4,1E0,7E0,4.7E1,1.2E1,1E0,1.2923E4,4E0,5.3E1,2.29E2,3.63E2,-5.5346955E-2,1.2E1,-5.5391695E-2,4E0,3.7E1,-5.5521484E-2,1.9230768E-2,1.8E1,-5.494506E-2,9.6E1,3.43E2,7.4E1,-5.1027644E-2,2E0,-5.5518944E-2,-4.8852414E-2,-2.5170917E-2,1.2192263E-1,-4.321487E-2,-5.281343E-2,7.860616E-2,-3.4351148E-2,2.7618244E-1,5.722071E-2,-4.1892458E-2,-2.6315793E-2,2.2850679E-1,-3.1142533E-2,-4.820593E-2],"split_indices":[40,11,30,27,26,27,35,12,31,6,6,6,0,27,0,30,26,0,0,26,0,1,6,26,0,30,0,0,0,0,0,0,0,0,0,0,0,0,0,0,0],"split_type":[0,0,0,0,0,0,0,0,0,0,0,0,0,0,0,0,0,0,0,0,0,0,0,0,0,0,0,0,0,0,0,0,0,0,0,0,0,0,0,0,0],"sum_hessian":[1.481976E4,2.9917798E3,1.18279795E4,2.78622E3,2.0556E2,3.969E2,1.1431079E4,1.15596E3,1.6302599E3,1.206E2,8.496E1,1.3158E2,2.6531998E2,1.93932E3,9.49176E3,8.7624E2,2.7972E2,1.6291799E3,1.0799999E0,3.0599998E1,8.999999E1,2.43E1,6.0659996E1,7.614E1,5.544E1,4.2318E2,1.5161399E3,8.1287994E2,6.3359997E1,3.312E1,2.4659999E2,1.9259998E1,1.1339999E1,1.6199999E0,2.2679998E1,1.3679999E1,4.698E1,7.271999E1,3.4199998E0,1.0367999E2,3.195E2],"tree_param":{"num_deleted":"0","num_feature":"42","num_nodes":"41","size_leaf_vector":"0"}},{"base_weights":[-5.525493E-1,-5.528794E-1,-4.2051533E-1,-5.5473536E-2,-5.4009813E-1,-5.4149803E-2,1.5648855E-1,-4.7384655E-1,-5.5393386E-1,-5.4217782E-2,-2.1667129E-1,-5.5519927E-2,-4.1149947E-1,2.1951221E-1,-5.1639598E-2,-5.2109182E-2,4.1984733E-2],"categories":[],"categories_nodes":[],"categories_segments":[],"categories_sizes":[],"default_left":[0,0,0,0,0,0,0,0,0,0,0,0,0,0,0,0,0],"id":9,"left_children":[1,3,5,-1,7,-1,-1,9,11,-1,13,-1,15,-1,-1,-1,-1],"loss_changes":[4.140625E-1,5.126953E-2,1.0729174E1,0E0,1.4901733E0,0E0,0E0,5.808876E0,5.5511475E-2,0E0,5.3512997E1,0E0,1.835058E0,0E0,0E0,0E0,0E0],"parents":[2147483647,0,0,1,1,2,2,4,4,7,7,8,8,10,10,12,12],"right_children":[2,4,6,-1,8,-1,-1,10,12,-1,14,-1,16,-1,-1,-1,-1],"split_conditions":[1.126E3,5E0,8E0,-5.5473536E-2,7.4E1,-5.4149803E-2,1.5648855E-1,6.11E2,1.137E3,-5.4217782E-2,6.34E2,-5.5519927E-2,8E0,2.1951221E-1,-5.1639598E-2,-5.2109182E-2,4.1984733E-2],"split_indices":[29,2,9,0,7,0,0,6,27,0,6,0,9,0,0,0,0],"split_type":[0,0,0,0,0,0,0,0,0,0,0,0,0,0,0,0,0],"sum_hessian":[1.481976E4,1.4779619E4,4.014E1,1.286856E4,1.9110599E3,3.8519997E1,1.6199999E0,3.3624E2,1.57482E3,2.6478E2,7.146E1,1.55808E3,1.674E1,7.2E0,6.4259995E1,1.5119999E1,1.6199999E0],"tree_param":{"num_deleted":"0","num_feature":"42","num_nodes":"17","size_leaf_vector":"0"}},{"base_weights":[-5.035787E-1,-2.1381702E-1,-5.259794E-1,-3.7069255E-1,1.6387601E-1,-5.456684E-1,-1.7195724E-1,-5.1247656E-1,-2.3492189E-1,-1.3197559E-1,2.144983E-1,-5.498991E-2,-5.289969E-1,-3.932919E-1,2.139782E-1,-5.205135E-1,-4.9656294E-2,-2.4491224E-1,2.1090737E-2,-2.7967146E-1,2.143134E-2,2.2084499E-2,-4.2954203E-2,-4.3732667E-1,-5.5025244E-1,-2.2100201E-1,-5.365399E-1,-4.0505853E-2,2.2027502E-2,-5.2610923E-2,7.6560727E-3,-2.0966908E-2,1.6934479E-2,-4.817514E-2,-2.2882476E-2,-4.322197E-2,-2.4415527E-2,-1.9925296E-2,1.6105723E-2,7.860585E-2,-5.5111922E-2,-1.6866552E-3,-5.5073477E-2,-3.1102909E-2,2.3317946E-2,-5.4905135E-2,-2.1266568E-2,-1.96463E-2,1.611721E-2],"categories":[],"categories_nodes":[],"categories_segments":[],"categories_sizes":[],"default_left":[0,0,0,0,0,0,0,0,0,0,0,0,0,0,0,0,0,0,0,0,0,0,0,0,0,0,0,0,0,0,0,0,0,0,0,0,0,0,0,0,0,0,0,0,0,0,0,0,0],"id":10,"left_children":[1,3,5,7,9,11,13,15,17,19,21,-1,23,25,27,29,31,33,-1,35,-1,-1,37,39,41,43,45,47,-1,-1,-1,-1,-1,-1,-1,-1,-1,-1,-1,-1,-1,-1,-1,-1,-1,-1,-1,-1,-1],"loss_changes":[9.0895996E1,5.977533E1,9.0619385E1,1.3592911E1,4.4681835E0,5.788574E-1,5.8778038E1,1.2671967E0,1.6807041E0,2.3069053E0,4.2372894E-1,0E0,4.6724854E0,1.0667419E1,4.112692E-1,1.1815338E0,2.8217235E-1,1.2545471E0,0E0,6.368041E-2,0E0,0E0,2.532748E-1,6.718425E1,5.1623535E-1,8.254491E0,8.4734344E-1,2.489217E-1,0E0,0E0,0E0,0E0,0E0,0E0,0E0,0E0,0E0,0E0,0E0,0E0,0E0,0E0,0E0,0E0,0E0,0E0,0E0,0E0,0E0],"parents":[2147483647,0,0,1,1,2,2,3,3,4,4,5,5,6,6,7,7,8,8,9,9,10,10,12,12,13,13,14,14,15,15,16,16,17,17,19,19,22,22,23,23,24,24,25,25,26,26,27,27],"right_children":[2,4,6,8,10,12,14,16,18,20,22,-1,24,26,28,30,32,34,-1,36,-1,-1,38,40,42,44,46,48,-1,-1,-1,-1,-1,-1,-1,-1,-1,-1,-1,-1,-1,-1,-1,-1,-1,-1,-1,-1,-1],"split_conditions":[1.11E2,8E0,1.18E2,2E0,5.4E1,7.6E1,9E0,9.9E1,6E0,1.2E1,8E0,-5.498991E-2,5.44E2,5E0,6.9E1,2E0,2E0,4.1E1,2.1090737E-2,9E0,2.143134E-2,2.2084499E-2,4E0,1E0,3.94E2,5E0,1.19E2,4E0,2.2027502E-2,-5.2610923E-2,7.6560727E-3,-2.0966908E-2,1.6934479E-2,-4.817514E-2,-2.2882476E-2,-4.322197E-2,-2.4415527E-2,-1.9925296E-2,1.6105723E-2,7.860585E-2,-5.5111922E-2,-1.6866552E-3,-5.5073477E-2,-3.1102909E-2,2.3317946E-2,-5.4905135E-2,-2.1266568E-2,-1.96463E-2,1.611721E-2],"split_indices":[1,40,1,35,26,27,30,1,32,30,32,0,7,35,6,33,30,26,0,32,0,0,0,2,8,30,1,0,0,0,0,0,0,0,0,0,0,0,0,0,0,0,0,0,0,0,0,0,0],"split_type":[0,0,0,0,0,0,0,0,0,0,0,0,0,0,0,0,0,0,0,0,0,0,0,0,0,0,0,0,0,0,0,0,0,0,0,0,0,0,0,0,0,0,0,0,0,0,0,0,0],"sum_hessian":[1.4019993E4,1.00682745E3,1.3013166E4,7.11375E2,2.9545245E2,1.2327052E4,6.8611395E2,3.4662415E2,3.6475082E2,4.2932888E1,2.5251956E2,9.806519E3,2.5205332E3,4.3603058E2,2.5008337E2,3.405852E2,6.0389576E0,3.5719727E2,7.5535784E0,3.02313E1,1.270159E1,2.4658302E2,5.9365425E0,4.7849146E2,2.0420419E3,1.991037E2,2.369269E2,5.907339E0,2.4417604E2,3.3754065E2,3.0445435E0,3.5140407E0,2.5249166E0,2.087852E1,3.3631873E2,3.5998173E0,2.6631483E1,3.3745396E0,2.5620031E0,4.0216415E1,4.3827505E2,1.8771738E0,2.0401647E3,1.6642952E2,3.2674183E1,2.2744528E2,9.481612E0,3.3458548E0,2.5614846E0],"tree_param":{"num_deleted":"0","num_feature":"42","num_nodes":"49","size_leaf_vector":"0"}},{"base_weights":[-5.102137E-1,-5.253821E-1,-2.1412513E-1,-2.7155948E-1,-5.4598373E-1,-4.610346E-1,2.139782E-1,-4.633781E-1,1.6036557E-1,2.7988657E-1,-5.4630405E-1,-5.0391704E-1,2.0864978E-2,-4.0505853E-2,2.2027502E-2,-4.8497936E-1,3.7825007E-2,-8.511313E-2,2.1449758E-1,1.1907067E-1,-4.10156E-2,-5.464627E-1,-1.8773732E-1,-3.0170834E-1,-5.357401E-1,-1.96463E-2,1.611721E-2,-5.1469393E-2,-3.6985878E-2,-2.5545387E-2,2.2312887E-2,-2.8253956E-2,1.0321618E-2,2.2084499E-2,-4.2967494E-3,-5.161785E-2,-5.4835208E-2,6.366966E-2,-4.579873E-2,-4.5129895E-2,2.0928837E-2,1.6309658E-2,-5.4131575E-2],"categories":[],"categories_nodes":[],"categories_segments":[],"categories_sizes":[],"default_left":[0,0,0,0,0,0,0,0,0,0,0,0,0,0,0,0,0,0,0,0,0,0,0,0,0,0,0,0,0,0,0,0,0,0,0,0,0,0,0,0,0,0,0],"id":11,"left_children":[1,3,5,7,9,11,13,15,17,19,21,23,-1,25,-1,27,29,31,33,-1,-1,35,37,39,41,-1,-1,-1,-1,-1,-1,-1,-1,-1,-1,-1,-1,-1,-1,-1,-1,-1,-1],"loss_changes":[6.2820312E1,6.955127E1,7.245815E1,8.314314E1,3.4138184E0,1.2582207E1,4.112692E-1,7.5379486E0,4.1253686E0,3.907865E0,5.983887E-1,2.4677963E0,0E0,2.489217E-1,0E0,2.0875854E0,1.6669903E0,2.132074E0,4.2380047E-1,0E0,0E0,4.2163086E-1,1.8451018E0,4.516693E0,1.4589233E0,0E0,0E0,0E0,0E0,0E0,0E0,0E0,0E0,0E0,0E0,0E0,0E0,0E0,0E0,0E0,0E0,0E0,0E0],"parents":[2147483647,0,0,1,1,2,2,3,3,4,4,5,5,6,6,7,7,8,8,9,9,10,10,11,11,13,13,15,15,16,16,17,17,18,18,21,21,22,22,23,23,24,24],"right_children":[2,4,6,8,10,12,14,16,18,20,22,24,-1,26,-1,28,30,32,34,-1,-1,36,38,40,42,-1,-1,-1,-1,-1,-1,-1,-1,-1,-1,-1,-1,-1,-1,-1,-1,-1,-1],"split_conditions":[1.18E2,1.11E2,9E0,7E0,3E0,1E1,6.9E1,3E0,5.4E1,1E0,2E0,3E0,2.0864978E-2,4E0,2.2027502E-2,2.321E3,4E0,1.1E1,8E0,1.1907067E-1,-4.10156E-2,1.3E1,1.203E3,3E0,4.0605E4,-1.96463E-2,1.611721E-2,-5.1469393E-2,-3.6985878E-2,-2.5545387E-2,2.2312887E-2,-2.8253956E-2,1.0321618E-2,2.2084499E-2,-4.2967494E-3,-5.161785E-2,-5.4835208E-2,6.366966E-2,-4.579873E-2,-4.5129895E-2,2.0928837E-2,1.6309658E-2,-5.4131575E-2],"split_indices":[1,1,30,40,26,0,6,33,26,32,28,35,0,0,0,17,30,0,32,0,0,26,24,30,8,0,0,0,0,0,0,0,0,0,0,0,0,0,0,0,0,0,0],"split_type":[0,0,0,0,0,0,0,0,0,0,0,0,0,0,0,0,0,0,0,0,0,0,0,0,0,0,0,0,0,0,0,0,0,0,0,0,0,0,0,0,0,0,0],"sum_hessian":[1.4011531E4,1.3327975E4,6.835564E2,1.0016259E3,1.2326349E4,4.3347302E2,2.5008337E2,6.935475E2,3.0807843E2,4.4406743E0,1.2321908E4,4.0761917E2,2.585386E1,5.907339E0,2.4417604E2,6.649225E2,2.8624994E1,5.5558502E1,2.5251993E2,1.6013803E0,2.839294E0,1.2315936E4,5.972533E0,5.6852215E1,3.5076694E2,3.3458548E0,2.5614846E0,5.257474E2,1.391751E2,1.0936818E1,1.7688177E1,2.6879925E1,2.867858E1,2.4658302E2,5.936895E0,7.393576E2,1.1576578E4,1.1397175E0,4.8328156E0,4.406835E1,1.2783864E1,2.5528162E0,3.4821414E2],"tree_param":{"num_deleted":"0","num_feature":"42","num_nodes":"43","size_leaf_vector":"0"}},{"base_weights":[-2.681566E-1,-3.460282E-1,1.081549E0,8.0728626E-1,-4.496616E-1,1.478004E0,2.401109E-1,1.0348945E0,-5.47812E-2,-2.0004624E-1,-5.1769906E-1,1.5425274E0,2.0864978E-2,8.641252E-1,2.2027502E-2,1.3278302E0,3.9943632E-1,-5.495875E-2,-1.4837791E-1,-5.206059E-1,1.8299445E0,1.273621E0,1.6133724E-1,1.20234214E-1,1.611721E-2,-5.176095E-2,1.3672997E-1,1.1981609E-1,2.3996495E-2,-2.187776E-2,2.6505658E-2,-4.2830277E-2,-5.3659257E-2,2.9218873E-1,-4.400463E-2,1.4446768E-1,2.0844245E-2],"categories":[],"categories_nodes":[],"categories_segments":[],"categories_sizes":[],"default_left":[0,0,0,0,0,0,0,0,0,0,0,0,0,0,0,0,0,0,0,0,0,0,0,0,0,0,0,0,0,0,0,0,0,0,0,0,0],"id":12,"left_children":[1,3,5,7,9,11,13,15,-1,17,19,21,-1,23,-1,25,27,-1,29,31,33,35,-1,-1,-1,-1,-1,-1,-1,-1,-1,-1,-1,-1,-1,-1,-1],"loss_changes":[1.5063284E3,1.6195781E3,2.6045477E2,3.4518463E2,2.110166E2,4.318799E1,2.9237404E0,1.7761133E2,0E0,4.8034943E1,6.761157E1,7.572998E0,0E0,1.5676537E0,0E0,4.8387695E1,3.8356133E1,0E0,6.765571E1,1.4167236E1,3.1776642E1,1.976529E1,0E0,0E0,0E0,0E0,0E0,0E0,0E0,0E0,0E0,0E0,0E0,0E0,0E0,0E0,0E0],"parents":[2147483647,0,0,1,1,2,2,3,3,4,4,5,5,6,6,7,7,9,9,10,10,11,11,13,13,15,15,16,16,18,18,19,19,20,20,21,21],"right_children":[2,4,6,8,10,12,14,16,-1,18,20,22,-1,24,-1,26,28,-1,30,32,34,36,-1,-1,-1,-1,-1,-1,-1,-1,-1,-1,-1,-1,-1,-1,-1],"split_conditions":[1.18E2,1.11E2,9E0,3.9485E4,1E0,1E1,6.9E1,8E0,-5.47812E-2,6E0,1.15E2,4E0,2.0864978E-2,4E0,2.2027502E-2,1E0,5.4E1,-5.495875E-2,1.3E1,2E0,5E0,4E0,1.6133724E-1,1.20234214E-1,1.611721E-2,-5.176095E-2,1.3672997E-1,1.1981609E-1,2.3996495E-2,-2.187776E-2,2.6505658E-2,-4.2830277E-2,-5.3659257E-2,2.9218873E-1,-4.400463E-2,1.4446768E-1,2.0844245E-2],"split_indices":[1,1,30,15,40,0,6,40,0,9,13,35,0,0,0,0,26,0,29,40,27,30,0,0,0,0,0,0,0,0,0,0,0,0,0,0,0],"split_type":[0,0,0,0,0,0,0,0,0,0,0,0,0,0,0,0,0,0,0,0,0,0,0,0,0,0,0,0,0,0,0,0,0,0,0,0,0],"sum_hessian":[1.4327258E4,1.3546437E4,7.808216E2,1.1163228E3,1.2430113E4,5.302368E2,2.505848E2,9.559872E2,1.6033551E2,2.6632266E3,9.766887E3,5.0438297E2,2.585386E1,6.408763E0,2.4417604E2,6.535992E2,3.02388E2,3.4173303E2,2.3214934E3,9.755586E3,1.1301157E1,1.0913102E2,3.9525192E2,3.8472784E0,2.5614846E0,1.3432525E1,6.401667E2,4.9242058E1,2.5314592E2,1.9841097E3,3.373837E2,1.4443E3,8.311286E3,7.436681E0,3.864476E0,9.372376E1,1.5407264E1],"tree_param":{"num_deleted":"0","num_feature":"42","num_nodes":"37","size_leaf_vector":"0"}},{"base_weights":[1.8344113E-1,1.3632537E0,-1.7289218E-1,-1.1329873E-1,1.8809816E0,-2.729731E-1,1.1886532E0,6.479851E-1,-4.171965E-1,7.141176E-1,2.445191E0,1.0012356E0,-3.8366422E-1,1.3401744E0,8.910514E-2,-5.46722E-2,1.7062328E0,-5.139685E-1,3.201216E-1,9.119191E-2,1.8394681E0,1.8872211E0,2.7491333E0,-3.5690817E-1,1.1093991E0,-5.3307927E-1,-6.17782E-2,1.3656431E0,8.543569E-2,1.5667397E-1,2.1643971E-1,-5.190738E-2,7.245343E-2,1.0099708E-2,1.6662882E-1,-3.5382E-2,7.7293955E-2,6.8476446E-2,2.3558462E-1,1.3954884E-1,2.4173935E-1,2.8702E-1,1.2708E-1,-5.415244E-2,8.05241E-2,1.2163831E-1,8.5994E-2,1.6131096E-1,-5.3396113E-2,-2.9288832E-2,3.3313733E-1,6.153068E-2,1.3687716E-1],"categories":[],"categories_nodes":[],"categories_segments":[],"categories_sizes":[],"default_left":[0,0,0,0,0,0,0,0,0,0,0,0,0,0,0,0,0,0,0,0,0,0,0,0,0,0,0,0,0,0,0,0,0,0,0,0,0,0,0,0,0,0,0,0,0,0,0,0,0,0,0,0,0],"id":13,"left_children":[1,3,5,7,9,11,13,15,17,19,21,23,25,27,-1,-1,29,31,33,35,37,39,41,43,45,47,49,51,-1,-1,-1,-1,-1,-1,-1,-1,-1,-1,-1,-1,-1,-1,-1,-1,-1,-1,-1,-1,-1,-1,-1,-1,-1],"loss_changes":[6.311771E3,2.662495E3,1.5716385E3,2.096555E2,1.6958584E3,1.5155547E3,3.44187E1,3.2788382E2,4.6360893E1,5.8997076E2,2.895127E2,1.2656976E2,4.7536646E2,5.2838135E0,0E0,0E0,5.3888245E0,3.9972687E0,2.2171434E1,1.6499309E2,1.7720789E2,1.5721216E2,1.9729688E2,1.4191856E1,2.0191956E1,1.3638428E1,2.459287E3,3.1658936E-1,0E0,0E0,0E0,0E0,0E0,0E0,0E0,0E0,0E0,0E0,0E0,0E0,0E0,0E0,0E0,0E0,0E0,0E0,0E0,0E0,0E0,0E0,0E0,0E0,0E0],"parents":[2147483647,0,0,1,1,2,2,3,3,4,4,5,5,6,6,7,7,8,8,9,9,10,10,11,11,12,12,13,13,16,16,17,17,18,18,19,19,20,20,21,21,22,22,23,23,24,24,25,25,26,26,27,27],"right_children":[2,4,6,8,10,12,14,16,18,20,22,24,26,28,-1,-1,30,32,34,36,38,40,42,44,46,48,50,52,-1,-1,-1,-1,-1,-1,-1,-1,-1,-1,-1,-1,-1,-1,-1,-1,-1,-1,-1,-1,-1,-1,-1,-1,-1],"split_conditions":[1E0,4E0,1.18E2,1.07E2,1.4616E4,1.11E2,9E0,7E0,4.1818E4,3E0,6.03E2,1.44E2,5E0,1E1,8.910514E-2,-5.46722E-2,2.54E3,1E0,1.055E3,4.6E1,3.95E2,5E1,9E0,3E0,1E1,1E0,6.58E2,4.0605E4,8.543569E-2,1.5667397E-1,2.1643971E-1,-5.190738E-2,7.245343E-2,1.0099708E-2,1.6662882E-1,-3.5382E-2,7.7293955E-2,6.8476446E-2,2.3558462E-1,1.3954884E-1,2.4173935E-1,2.8702E-1,1.2708E-1,-5.415244E-2,8.05241E-2,1.2163831E-1,8.5994E-2,1.6131096E-1,-5.3396113E-2,-2.9288832E-2,3.3313733E-1,6.153068E-2,1.3687716E-1],"split_indices":[40,10,1,1,12,1,30,1,11,2,7,8,10,0,0,0,6,34,6,26,6,26,9,30,30,6,7,8,0,0,0,0,0,0,0,0,0,0,0,0,0,0,0,0,0,0,0,0,0,0,0,0,0],"split_type":[0,0,0,0,0,0,0,0,0,0,0,0,0,0,0,0,0,0,0,0,0,0,0,0,0,0,0,0,0,0,0,0,0,0,0,0,0,0,0,0,0,0,0,0,0,0,0,0,0,0,0,0,0],"sum_hessian":[1.5011934E4,3.4815999E3,1.1530334E4,9.0404834E2,2.5775515E3,1.074157E4,7.887637E2,2.576032E2,6.464452E2,8.408406E2,1.7367109E3,8.5790027E2,9.88367E3,5.2033624E2,2.6842743E2,1.2122725E2,1.3637596E2,5.717117E2,7.473349E1,5.419378E2,2.9890277E2,6.149716E2,1.1217393E3,6.3114162E1,7.947861E2,6.7498345E3,3.1338354E3,4.9269586E2,2.764038E1,1.07933914E2,2.8442036E1,5.699432E2,1.7684897E0,6.519611E1,9.537378E0,3.2819135E2,2.1374644E2,9.308219E1,2.0582059E2,3.209365E2,2.9403516E2,1.0359591E3,8.578019E1,5.492322E1,8.190941E0,5.5352374E2,2.4126236E2,2.021489E0,6.747813E3,2.934854E3,1.9898145E2,2.8664968E0,4.8982938E2],"tree_param":{"num_deleted":"0","num_feature":"42","num_nodes":"53","size_leaf_vector":"0"}},{"base_weights":[-1.3710468E-1,-5.5119187E-2,6.6567004E-2,-4.3792892E-1,4.2682818E-1,7.6167054E-2,-5.28461E-1,-2.6881215E-1,6.1556643E-1,1.2947474E0,-1.9678986E-1,-5.47287E-1,1.7737766E-1,-4.18083E-1,1.6815305E-1,1.9446566E0,3.547426E-1,-1.8983161E-2,2.76612E-1,-4.998872E-2,3.3875715E-2,1.1588221E-1,-5.4846864E-2,-1.0189551E-2,1.1546966E-1,-4.3086346E-2,2.5369856E-1,-2.216809E-2,8.060971E-2,-2.8466284E-2,2.40134E-1,-1.9394444E-2,6.635891E-2],"categories":[],"categories_nodes":[],"categories_segments":[],"categories_sizes":[],"default_left":[0,0,0,0,0,0,0,0,0,0,0,0,0,0,0,0,0,0,0,0,0,0,0,0,0,0,0,0,0,0,0,0,0],"id":14,"left_children":[1,-1,3,5,7,9,11,13,15,17,19,21,23,25,27,29,31,-1,-1,-1,-1,-1,-1,-1,-1,-1,-1,-1,-1,-1,-1,-1,-1],"loss_changes":[1.2242534E3,0E0,1.7687626E3,1.8873999E2,7.455759E2,2.0246909E2,4.5907043E1,7.914614E1,1.5475155E3,2.4383755E2,8.093405E1,7.4057007E0,2.4768433E1,3.5231796E1,7.71252E1,7.4636914E2,6.330028E2,0E0,0E0,0E0,0E0,0E0,0E0,0E0,0E0,0E0,0E0,0E0,0E0,0E0,0E0,0E0,0E0],"parents":[2147483647,0,0,2,2,3,3,4,4,5,5,6,6,7,7,8,8,9,9,10,10,11,11,12,12,13,13,14,14,15,15,16,16],"right_children":[2,-1,4,6,8,10,12,14,16,18,20,22,24,26,28,30,32,-1,-1,-1,-1,-1,-1,-1,-1,-1,-1,-1,-1,-1,-1,-1,-1],"split_conditions":[9E0,-5.5119187E-2,6.9E1,2.7E1,1E0,1E0,4.7E1,1.62E2,1E0,2E0,1E0,7E0,1.3E1,7.9E1,1.8138E4,1E0,1E0,-1.8983161E-2,2.76612E-1,-4.998872E-2,3.3875715E-2,1.1588221E-1,-5.4846864E-2,-1.0189551E-2,1.1546966E-1,-4.3086346E-2,2.5369856E-1,-2.216809E-2,8.060971E-2,-2.8466284E-2,2.40134E-1,-1.9394444E-2,6.635891E-2],"split_indices":[9,0,6,6,40,35,26,7,35,40,33,26,30,4,23,30,33,0,0,0,0,0,0,0,0,0,0,0,0,0,0,0,0],"split_type":[0,0,0,0,0,0,0,0,0,0,0,0,0,0,0,0,0,0,0,0,0,0,0,0,0,0,0,0,0,0,0,0,0],"sum_hessian":[1.451463E4,4.7848306E3,9.729799E3,4.0533823E3,5.6764165E3,6.0694403E2,3.4464382E3,1.2113329E3,4.4650835E3,1.1038798E2,4.9655603E2,3.3571223E3,8.931607E1,9.0292847E2,3.0840448E2,7.314336E2,3.7336501E3,5.5380943E1,5.500703E1,3.1713654E2,1.7941951E2,1.6454985E0,3.3554768E3,7.016255E1,1.9153519E1,8.998907E2,3.037756E0,1.9183235E2,1.16572136E2,1.2442489E2,6.070087E2,1.3448334E3,2.388817E3],"tree_param":{"num_deleted":"0","num_feature":"42","num_nodes":"33","size_leaf_vector":"0"}},{"base_weights":[6.218655E-1,2.6093714E0,-4.8411775E-1,-5.215187E-1,3.0845768E0,-3.7220138E-1,-5.2405155E-1,-5.292409E-1,1.9680943E-2,3.089479E0,-2.4318713E-1,-4.8976713E-1,-1.9086435E-1,-5.2510273E-1,2.4556406E-1,-5.366811E-2,-4.7665882E-1,-2.998054E-2,3.090289E-1,2.7259499E-2,-4.6332657E-2,-5.1275885E-1,1.22291304E-1,-3.0552173E-1,3.276864E-1,-4.7677782E-1,-5.354104E-1,-5.320402E-2,-2.6082385E-2,-5.175006E-2,-7.8571803E-4,-2.2573471E-2,1.821399E-1,-3.6513623E-2,6.02037E-2,2.2585344E-1,-3.149393E-2,-4.804137E-2,1.378651E-1,-5.3617474E-2,-2.1211239E-2],"categories":[],"categories_nodes":[],"categories_segments":[],"categories_sizes":[],"default_left":[0,0,0,0,0,0,0,0,0,0,0,0,0,0,0,0,0,0,0,0,0,0,0,0,0,0,0,0,0,0,0,0,0,0,0,0,0,0,0,0,0],"id":15,"left_children":[1,3,5,7,9,11,13,15,-1,17,19,21,23,25,-1,-1,27,-1,-1,-1,-1,29,31,33,35,37,39,-1,-1,-1,-1,-1,-1,-1,-1,-1,-1,-1,-1,-1,-1],"loss_changes":[3.492715E4,8.453457E3,4.5431885E1,4.2614136E0,8.121094E1,5.7217346E1,2.4850586E1,3.437805E-2,0E0,1.44453125E1,1.0553299E0,2.300409E1,6.3063164E1,3.4907227E0,0E0,0E0,1.0671558E0,0E0,0E0,0E0,0E0,3.7581177E0,3.57907E1,4.7168457E1,2.3924274E2,9.6423645E0,1.4157715E0,0E0,0E0,0E0,0E0,0E0,0E0,0E0,0E0,0E0,0E0,0E0,0E0,0E0,0E0],"parents":[2147483647,0,0,1,1,2,2,3,3,4,4,5,5,6,6,7,7,9,9,10,10,11,11,12,12,13,13,16,16,21,21,22,22,23,23,24,24,25,25,26,26],"right_children":[2,4,6,8,10,12,14,16,-1,18,20,22,24,26,-1,-1,28,-1,-1,-1,-1,30,32,34,36,38,40,-1,-1,-1,-1,-1,-1,-1,-1,-1,-1,-1,-1,-1,-1],"split_conditions":[3.4E1,1E0,1E0,5E0,2E1,5.8E1,1.2E1,1E0,1.9680943E-2,8E0,2.2E1,1.068E3,9.8E1,2E0,2.4556406E-1,-5.366811E-2,8E0,-2.998054E-2,3.090289E-1,2.7259499E-2,-4.6332657E-2,8E0,2.8E1,4.2015E4,3E0,2E0,2.6E1,-5.320402E-2,-2.6082385E-2,-5.175006E-2,-7.8571803E-4,-2.2573471E-2,1.821399E-1,-3.6513623E-2,6.02037E-2,2.2585344E-1,-3.149393E-2,-4.804137E-2,1.378651E-1,-5.3617474E-2,-2.1211239E-2],"split_indices":[6,2,40,34,26,26,2,34,0,9,26,27,27,30,0,0,30,0,0,0,0,2,26,11,13,33,39,0,0,0,0,0,0,0,0,0,0,0,0,0,0],"split_type":[0,0,0,0,0,0,0,0,0,0,0,0,0,0,0,0,0,0,0,0,0,0,0,0,0,0,0,0,0,0,0,0,0,0,0,0,0,0,0,0,0],"sum_hessian":[1.5887777E4,5.679707E3,1.020807E4,7.484499E2,4.9312573E3,2.6872473E3,7.5208228E3,7.407499E2,7.7000346E0,4.924075E3,7.1821103E0,1.6292555E3,1.0579917E3,7.518994E3,1.8289366E0,6.4086285E2,9.9886986E1,1.0880061E0,4.9229873E3,2.0771372E0,5.104973E0,1.5704254E3,5.8830086E1,8.6675366E2,1.9123808E2,1.3301503E3,6.1888438E3,7.8324554E1,2.1562433E1,1.5557894E3,1.4635979E1,4.9548317E1,9.281772E0,8.1388965E2,5.2864E1,4.712641E1,1.4411166E2,1.3282885E3,1.8618095E0,6.1735894E3,1.5254291E1],"tree_param":{"num_deleted":"0","num_feature":"42","num_nodes":"41","size_leaf_vector":"0"}},{"base_weights":[1.5179973E0,2.0588694E0,-4.4773668E-1,3.09098E-1,1.5099367E0,2.0336401E0,-5.2983975E-1,2.4308388E-1,2.1880524E0,3.0128148E0,1.1834403E0,3.183476E-1,-5.5075103E-1,-5.072957E-2,1.2549438E0,-5.3244567E-1,2.3992639E0,3.2754955E-1,-4.626003E-2,-1.0858203E-1,2.3528414E0,-5.5236425E-2,1.3374484E-1,-8.62811E-3,3.2974333E-1,1.4491123E-1,-4.628433E-2,4.535311E-2,-5.5080622E-2,2.5697124E-1,-5.5112716E-2,1.5486442E-1,-4.5418255E-2,2.8050736E-1,-4.633896E-2],"categories":[],"categories_nodes":[],"categories_segments":[],"categories_sizes":[],"default_left":[0,0,0,0,0,0,0,0,0,0,0,0,0,0,0,0,0,0,0,0,0,0,0,0,0,0,0,0,0,0,0,0,0,0,0],"id":16,"left_children":[1,3,5,-1,7,9,11,13,15,17,19,-1,21,23,25,27,29,-1,-1,31,33,-1,-1,-1,-1,-1,-1,-1,-1,-1,-1,-1,-1,-1,-1],"loss_changes":[1.8796281E4,7.849875E3,7.78372E2,0E0,7.7759277E3,9.833539E1,2.8858826E2,9.3868414E2,3.3891133E3,5.285846E1,1.0173299E2,0E0,1.192981E1,2.9163736E2,2.3764807E2,7.954254E0,2.7529277E3,0E0,0E0,1.9526352E1,4.625641E1,0E0,0E0,0E0,0E0,0E0,0E0,0E0,0E0,0E0,0E0,0E0,0E0,0E0,0E0],"parents":[2147483647,0,0,1,1,2,2,4,4,5,5,6,6,7,7,8,8,9,9,10,10,12,12,13,13,14,14,15,15,16,16,19,19,20,20],"right_children":[2,4,6,-1,8,10,12,14,16,18,20,-1,22,24,26,28,30,-1,-1,32,34,-1,-1,-1,-1,-1,-1,-1,-1,-1,-1,-1,-1,-1,-1],"split_conditions":[2E0,7E0,2E0,3.09098E-1,1E0,8E0,1.5E1,3.0893E4,1.11E2,2.06E2,3E0,3.183476E-1,1.7E2,2.535E4,6.03E2,2.3E1,1.18E2,3.2754955E-1,-4.626003E-2,3E0,1.1E1,-5.5236425E-2,1.3374484E-1,-8.62811E-3,3.2974333E-1,1.4491123E-1,-4.628433E-2,4.535311E-2,-5.5080622E-2,2.5697124E-1,-5.5112716E-2,1.5486442E-1,-4.5418255E-2,2.8050736E-1,-4.633896E-2],"split_indices":[34,9,31,0,35,9,26,16,1,29,35,0,6,23,7,6,1,0,0,40,30,0,0,0,0,0,0,0,0,0,0,0,0,0,0],"split_type":[0,0,0,0,0,0,0,0,0,0,0,0,0,0,0,0,0,0,0,0,0,0,0,0,0,0,0,0,0,0,0,0,0,0,0],"sum_hessian":[1.7676928E4,1.3862587E4,3.81434E3,4.8114326E3,9.051154E3,1.2140433E2,3.6929358E3,3.15617E3,5.8949844E3,5.5240376E1,6.6163956E1,1.9833158E1,3.6731028E3,2.4466785E3,7.094914E2,4.2458762E2,5.470397E3,5.141205E1,3.8283277E0,3.18649E1,3.4299053E1,3.6706743E3,2.4285116E0,2.421936E3,2.4742424E1,6.375796E2,7.1911804E1,7.3287053E0,4.172589E2,5.171746E3,2.9865057E2,4.8978186E0,2.6967083E1,2.9556768E1,4.742285E0],"tree_param":{"num_deleted":"0","num_feature":"42","num_nodes":"35","size_leaf_vector":"0"}},{"base_weights":[-3.094245E-1,2.625148E-1,-4.6606672E-1,1.0688871E0,-5.3797555E-1,8.808263E-2,-4.8657662E-1,1.6398294E0,-4.096551E-1,1.2030432E0,-5.4312986E-1,1.5031708E0,-4.8414478E-1,-4.264379E-1,-5.286642E-1,-4.75401E-1,2.308088E0,2.2420128E-1,-4.6730927E-1,-3.6387052E-2,2.3444898E-1,-5.444082E-1,5.840071E-2,2.299701E0,-2.4414366E-1,5.283543E-3,-5.4955203E-2,-2.854176E-1,-5.2407527E-1,-5.397307E-1,-3.7449872E-1,-4.8524257E-2,-6.380705E-4,2.910266E-1,1.0662732E-1,-4.0386155E-2,4.488902E-2,-1.1356025E-2,-5.163443E-2,-1.034179E-2,-5.4760832E-2,-5.16763E-2,2.937393E-1,-4.337948E-2,4.3934204E-2,2.745322E-2,-5.091731E-2,-3.75054E-2,4.2880306E-1,-5.466276E-3,-5.2987516E-2,-4.5818165E-2,-5.4402094E-2,-2.4642682E-2,-5.438136E-2],"categories":[],"categories_nodes":[],"categories_segments":[],"categories_sizes":[],"default_left":[0,0,0,0,0,0,0,0,0,0,0,0,0,0,0,0,0,0,0,0,0,0,0,0,0,0,0,0,0,0,0,0,0,0,0,0,0,0,0,0,0,0,0,0,0,0,0,0,0,0,0,0,0,0,0],"id":17,"left_children":[1,3,5,7,9,11,13,15,17,19,21,23,25,27,29,31,33,35,37,-1,-1,39,-1,41,43,45,-1,47,49,51,53,-1,-1,-1,-1,-1,-1,-1,-1,-1,-1,-1,-1,-1,-1,-1,-1,-1,-1,-1,-1,-1,-1,-1,-1],"loss_changes":[1.2811105E3,1.9852941E3,1.2761694E2,1.2939905E3,1.450589E1,3.2581082E2,2.717163E1,1.5637029E3,1.5731285E1,9.559014E0,2.5364685E0,1.6178616E2,9.178215E0,6.1281433E1,1.0654419E1,1.2257881E0,6.2522314E2,5.3076897E0,6.745819E0,0E0,0E0,2.114624E0,0E0,1.445975E2,5.009465E0,4.9572444E0,0E0,7.507782E2,7.1452026E0,1.8273926E0,9.178852E0,0E0,0E0,0E0,0E0,0E0,0E0,0E0,0E0,0E0,0E0,0E0,0E0,0E0,0E0,0E0,0E0,0E0,0E0,0E0,0E0,0E0,0E0,0E0,0E0],"parents":[2147483647,0,0,1,1,2,2,3,3,4,4,5,5,6,6,7,7,8,8,9,9,10,10,11,11,12,12,13,13,14,14,15,15,16,16,17,17,18,18,21,21,23,23,24,24,25,25,27,27,28,28,29,29,30,30],"right_children":[2,4,6,8,10,12,14,16,18,20,22,24,26,28,30,32,34,36,38,-1,-1,40,-1,42,44,46,-1,48,50,52,54,-1,-1,-1,-1,-1,-1,-1,-1,-1,-1,-1,-1,-1,-1,-1,-1,-1,-1,-1,-1,-1,-1,-1,-1],"split_conditions":[1E0,7E0,1E0,6.1E1,2.21E2,6E0,2E0,1.8E1,6.5E1,3.9158E4,4E0,2.44E2,7E0,2.44E2,1.18E2,1E0,2.44E2,4.133E3,9.6E1,-3.6387052E-2,2.3444898E-1,9.6E1,5.840071E-2,1.8E1,1E0,5.01E2,-5.4955203E-2,2.43E2,9.6E1,9.9E1,9E0,-4.8524257E-2,-6.380705E-4,2.910266E-1,1.0662732E-1,-4.0386155E-2,4.488902E-2,-1.1356025E-2,-5.163443E-2,-1.034179E-2,-5.4760832E-2,-5.16763E-2,2.937393E-1,-4.337948E-2,4.3934204E-2,2.745322E-2,-5.091731E-2,-3.75054E-2,4.2880306E-1,-5.466276E-3,-5.2987516E-2,-4.5818165E-2,-5.4402094E-2,-2.4642682E-2,-5.438136E-2],"split_indices":[40,27,30,26,12,27,32,26,26,17,31,6,27,6,1,2,6,12,1,0,0,1,0,26,2,6,0,6,1,1,30,0,0,0,0,0,0,0,0,0,0,0,0,0,0,0,0,0,0,0,0,0,0,0,0],"split_type":[0,0,0,0,0,0,0,0,0,0,0,0,0,0,0,0,0,0,0,0,0,0,0,0,0,0,0,0,0,0,0,0,0,0,0,0,0,0,0,0,0,0,0,0,0,0,0,0,0,0,0,0,0,0,0],"sum_hessian":[1.429736E4,3.0737324E3,1.1223628E4,1.5310735E3,1.542659E3,4.0045987E2,1.0823168E4,1.1044706E3,4.2660284E2,3.8675923E0,1.5387915E3,1.1483992E2,2.8561996E2,4.460588E3,6.36258E3,2.6523E2,8.3924066E2,3.5326847E1,3.91276E2,1.9171104E0,1.9504819E0,1.5375647E3,1.2267724E0,7.866403E1,3.6175888E1,3.3778893E1,2.5184106E2,1.8264783E3,2.6341096E3,5.934109E3,4.284714E2,2.5974515E2,5.484862E0,5.642717E2,2.749689E2,9.098051E0,2.6228798E1,4.8037716E1,3.4323828E2,1.1317273E1,1.5262474E3,1.4557639E1,6.410639E1,2.8604214E1,7.571673E0,2.2480007E1,1.1298887E1,1.792269E3,3.420923E1,3.227623E1,2.6018335E3,3.0197296E2,5.6321357E3,2.4534485E2,1.8312654E2],"tree_param":{"num_deleted":"0","num_feature":"42","num_nodes":"55","size_leaf_vector":"0"}},{"base_weights":[-5.247374E-1,-4.5393538E-1,-5.42788E-1,-4.898339E-1,7.690691E-3,-4.5866853E-1,-5.456998E-1,-4.0440565E-1,-5.507533E-1,-4.0925926E-1,5.325112E-1,-2.7803794E-1,-5.495283E-2,-5.250155E-1,-5.4986488E-2,-4.6382663E-1,-2.2115424E-1,-5.513991E-2,1.8885603E-2,-2.9763233E-2,-5.4468542E-2,1.8188866E0,-2.674433E-1,-1.0698489E-1,-5.070532E-1,-4.320689E-1,-5.5099774E-2,-4.813194E-2,-2.4007417E-2,1.0515006E-1,-4.227046E-2,-5.2353866E-2,6.9535874E-2,1.949362E-1,-3.720682E-2,2.2959083E-2,-4.682643E-2,-2.4950644E-2,1.9123946E-1,-3.8765896E-2,-5.400569E-2,-3.059935E-2,-4.7359794E-2],"categories":[],"categories_nodes":[],"categories_segments":[],"categories_sizes":[],"default_left":[0,0,0,0,0,0,0,0,0,0,0,0,0,0,0,0,0,0,0,0,0,0,0,0,0,0,0,0,0,0,0,0,0,0,0,0,0,0,0,0,0,0,0],"id":18,"left_children":[1,3,5,7,9,11,13,15,17,19,21,23,-1,25,-1,27,29,-1,-1,31,-1,33,35,37,39,41,-1,-1,-1,-1,-1,-1,-1,-1,-1,-1,-1,-1,-1,-1,-1,-1,-1],"loss_changes":[1.7639648E1,4.7220703E1,2.4799805E0,1.3535645E1,4.542043E1,6.070778E0,6.3916016E-1,1.19214325E1,8.3987427E-1,5.9290543E0,9.5044464E1,4.996557E0,0E0,4.1743164E0,0E0,3.1446228E0,7.02894E1,0E0,0E0,1.1636176E1,0E0,1.0833801E1,5.8496947E0,2.2083857E1,6.8130493E-3,1.969307E0,0E0,0E0,0E0,0E0,0E0,0E0,0E0,0E0,0E0,0E0,0E0,0E0,0E0,0E0,0E0,0E0,0E0],"parents":[2147483647,0,0,1,1,2,2,3,3,4,4,5,5,6,6,7,7,8,8,9,9,10,10,11,11,13,13,15,15,16,16,19,19,21,21,22,22,23,23,24,24,25,25],"right_children":[2,4,6,8,10,12,14,16,18,20,22,24,-1,26,-1,28,30,-1,-1,32,-1,34,36,38,40,42,-1,-1,-1,-1,-1,-1,-1,-1,-1,-1,-1,-1,-1,-1,-1,-1,-1],"split_conditions":[1E0,4.143E4,1E0,7E0,4.7E1,1.2E1,1E0,1.2923E4,4E0,5.3E1,2.79E2,3.63E2,-5.495283E-2,1.2E1,-5.4986488E-2,4E0,3.7E1,-5.513991E-2,1.8885603E-2,1.8E1,-5.4468542E-2,1E0,4.43E2,7.4E1,4.31E2,2E0,-5.5099774E-2,-4.813194E-2,-2.4007417E-2,1.0515006E-1,-4.227046E-2,-5.2353866E-2,6.9535874E-2,1.949362E-1,-3.720682E-2,2.2959083E-2,-4.682643E-2,-2.4950644E-2,1.9123946E-1,-3.8765896E-2,-5.400569E-2,-3.059935E-2,-4.7359794E-2],"split_indices":[40,11,30,27,26,27,35,12,31,6,6,6,0,27,0,30,26,0,0,26,0,2,6,26,6,30,0,0,0,0,0,0,0,0,0,0,0,0,0,0,0,0,0],"split_type":[0,0,0,0,0,0,0,0,0,0,0,0,0,0,0,0,0,0,0,0,0,0,0,0,0,0,0,0,0,0,0,0,0,0,0,0,0,0,0,0,0,0,0],"sum_hessian":[1.3994165E4,2.848254E3,1.1145911E4,2.6426838E3,2.0557022E2,3.782068E2,1.0767704E4,1.1032368E3,1.5394469E3,1.1468083E2,9.088938E1,1.2793337E2,2.502734E2,1.8261141E3,8.94159E3,8.3194116E2,2.7129562E2,1.5383582E3,1.0887344E0,3.0482224E1,8.419861E1,3.4361023E1,5.6528355E1,7.407408E1,5.3859287E1,4.028006E2,1.4233135E3,7.7054913E2,6.1392044E1,3.6514442E1,2.3478119E2,1.8299253E1,1.218297E1,3.2533844E1,1.8271803E0,1.6225874E1,4.0302483E1,7.0009476E1,4.064608E0,1.442421E1,3.9435078E1,1.0187945E2,3.0092114E2],"tree_param":{"num_deleted":"0","num_feature":"42","num_nodes":"43","size_leaf_vector":"0"}},{"base_weights":[-5.4843795E-1,-5.4878753E-1,-4.0920407E-1,-5.5072904E-2,-5.3545463E-1,-5.3632606E-2,1.3884054E-1,-4.6614042E-1,-5.5001503E-1,-5.3742226E-2,-2.072492E-1,-5.513506E-2,-4.01186E-1,1.8159865E-1,-5.1141303E-2,-5.1538583E-2,4.023684E-2],"categories":[],"categories_nodes":[],"categories_segments":[],"categories_sizes":[],"default_left":[0,0,0,0,0,0,0,0,0,0,0,0,0,0,0,0,0],"id":19,"left_children":[1,3,5,-1,7,-1,-1,9,11,-1,13,-1,15,-1,-1,-1,-1],"loss_changes":[4.555664E-1,6.542969E-2,9.635014E0,0E0,1.5667114E0,0E0,0E0,5.796585E0,7.4401855E-2,0E0,4.4464092E1,0E0,1.7581506E0,0E0,0E0,0E0,0E0],"parents":[2147483647,0,0,1,1,2,2,4,4,7,7,8,8,10,10,12,12],"right_children":[2,4,6,-1,8,-1,-1,10,12,-1,14,-1,16,-1,-1,-1,-1],"split_conditions":[1.126E3,5E0,8E0,-5.5072904E-2,7.4E1,-5.3632606E-2,1.3884054E-1,6.11E2,1.137E3,-5.3742226E-2,6.34E2,-5.513506E-2,8E0,1.8159865E-1,-5.1141303E-2,-5.1538583E-2,4.023684E-2],"split_indices":[29,2,9,0,7,0,0,6,27,0,6,0,9,0,0,0,0],"split_type":[0,0,0,0,0,0,0,0,0,0,0,0,0,0,0,0,0],"sum_hessian":[1.3964538E4,1.3926633E4,3.790489E1,1.2121245E4,1.8053883E3,3.60567E1,1.8481855E0,3.1914148E2,1.4862468E3,2.4939769E2,6.974377E1,1.4703475E3,1.5899285E1,8.4651165E0,6.1278652E1,1.4234868E1,1.6644177E0],"tree_param":{"num_deleted":"0","num_feature":"42","num_nodes":"17","size_leaf_vector":"0"}},{"base_weights":[-4.9768972E-1,-2.0356517E-1,-5.211324E-1,-3.6025468E-1,1.5321241E-1,-5.4181707E-1,-1.6271544E-1,-5.0654227E-1,-2.2466677E-1,-1.2474626E-1,1.9922106E-1,-5.4629114E-2,-5.241902E-1,-3.832884E-1,1.9812207E-1,-5.1502454E-1,-3.4253526E-2,-2.3469345E-1,2.0957349E-2,-2.7186778E-1,2.106834E-2,2.0507041E-2,-4.2452212E-2,-4.3083492E-1,-5.463838E-1,-2.1010001E-1,-5.320157E-1,-3.941813E-2,2.038801E-2,-5.2092057E-2,7.994208E-3,-1.9149411E-2,1.6782219E-2,-4.7485415E-2,-2.1880312E-2,-4.2681266E-2,-2.362434E-2,-1.9422606E-2,1.5122974E-2,6.9042616E-2,-5.480777E-2,-4.01422E-4,-5.4689612E-2,-2.9970733E-2,2.1805203E-2,-5.452258E-2,-2.005809E-2,-1.9223271E-2,1.5466459E-2],"categories":[],"categories_nodes":[],"categories_segments":[],"categories_sizes":[],"default_left":[0,0,0,0,0,0,0,0,0,0,0,0,0,0,0,0,0,0,0,0,0,0,0,0,0,0,0,0,0,0,0,0,0,0,0,0,0,0,0,0,0,0,0,0,0,0,0,0,0],"id":20,"left_children":[1,3,5,7,9,11,13,15,17,19,21,-1,23,25,27,29,31,33,-1,35,-1,-1,37,39,41,43,45,47,-1,-1,-1,-1,-1,-1,-1,-1,-1,-1,-1,-1,-1,-1,-1,-1,-1,-1,-1,-1,-1],"loss_changes":[9.149634E1,5.4971867E1,9.112964E1,1.3430908E1,3.8674855E0,6.308594E-1,5.3621445E1,1.2950745E0,1.6000538E0,2.1934638E0,3.736906E-1,0E0,4.694641E0,1.065168E1,3.5803032E-1,1.1705856E0,2.4987286E-1,1.2265472E0,0E0,6.766844E-2,0E0,0E0,2.3308292E-1,6.1080933E1,5.3100586E-1,7.5355825E0,8.720703E-1,2.3419704E-1,0E0,0E0,0E0,0E0,0E0,0E0,0E0,0E0,0E0,0E0,0E0,0E0,0E0,0E0,0E0,0E0,0E0,0E0,0E0,0E0,0E0],"parents":[2147483647,0,0,1,1,2,2,3,3,4,4,5,5,6,6,7,7,8,8,9,9,10,10,12,12,13,13,14,14,15,15,16,16,17,17,19,19,22,22,23,23,24,24,25,25,26,26,27,27],"right_children":[2,4,6,8,10,12,14,16,18,20,22,-1,24,26,28,30,32,34,-1,36,-1,-1,38,40,42,44,46,48,-1,-1,-1,-1,-1,-1,-1,-1,-1,-1,-1,-1,-1,-1,-1,-1,-1,-1,-1,-1,-1],"split_conditions":[1.11E2,8E0,1.18E2,2E0,5.4E1,7.6E1,9E0,9.9E1,6E0,1.2E1,8E0,-5.4629114E-2,5.44E2,5E0,6.9E1,2E0,2E0,4.1E1,2.0957349E-2,9E0,2.106834E-2,2.0507041E-2,4E0,1E0,3.94E2,5E0,1.19E2,4E0,2.038801E-2,-5.2092057E-2,7.994208E-3,-1.9149411E-2,1.6782219E-2,-4.7485415E-2,-2.1880312E-2,-4.2681266E-2,-2.362434E-2,-1.9422606E-2,1.5122974E-2,6.9042616E-2,-5.480777E-2,-4.01422E-4,-5.4689612E-2,-2.9970733E-2,2.1805203E-2,-5.452258E-2,-2.005809E-2,-1.9223271E-2,1.5466459E-2],"split_indices":[1,40,1,35,26,27,30,1,32,30,32,0,7,35,6,33,30,26,0,32,0,0,0,2,8,30,1,0,0,0,0,0,0,0,0,0,0,0,0,0,0,0,0,0,0,0,0,0,0],"split_type":[0,0,0,0,0,0,0,0,0,0,0,0,0,0,0,0,0,0,0,0,0,0,0,0,0,0,0,0,0,0,0,0,0,0,0,0,0,0,0,0,0,0,0,0,0,0,0,0,0],"sum_hessian":[1.3284233E4,9.813512E2,1.2302882E4,6.818755E2,2.994757E2,1.1631124E4,6.717583E2,3.2668008E2,3.5519537E2,4.228739E1,2.5718832E2,9.2526455E3,2.3784785E3,4.1687094E2,2.5488734E2,3.2082755E2,5.852535E0,3.4762814E2,7.5672493E0,2.9526419E1,1.2760975E1,2.5125842E2,5.9298944E0,4.607575E2,1.917721E3,1.9371191E2,2.2315901E2,5.893952E0,2.489934E2,3.1780264E2,3.0249119E0,3.3208532E0,2.5316813E0,1.9781067E1,3.2784708E2,3.4668345E0,2.6059584E1,3.3230574E0,2.6068373E0,4.3154728E1,4.1760278E2,1.8180379E0,1.9159028E3,1.6043475E2,3.3277157E1,2.1398506E2,9.173945E0,3.3028917E0,2.5910602E0],"tree_param":{"num_deleted":"0","num_feature":"42","num_nodes":"49","size_leaf_vector":"0"}},{"base_weights":[-5.04617E-1,-5.2048945E-1,-2.0430088E-1,-2.6100516E-1,-5.4213434E-1,-4.5323467E-1,1.9812207E-1,-4.6273553E-1,1.3667421E-1,2.671548E-1,-5.4247123E-1,-4.9781913E-1,1.9308183E-2,-3.941813E-2,2.038801E-2,-4.7666582E-1,2.1327024E-2,-8.4810875E-2,1.9543155E-1,1.06148474E-1,-4.0306963E-2,-5.426385E-1,-1.7582373E-1,-2.90909E-1,-5.312045E-1,-1.9223271E-2,1.5466459E-2,-5.0749537E-2,-3.566019E-2,-2.6750868E-2,8.405369E-3,1.9922204E-2,-3.120464E-2,-5.110171E-2,-5.4462295E-2,6.0864992E-2,-4.5129787E-2,-4.4351038E-2,2.0175667E-2,1.5400645E-2,-5.370757E-2],"categories":[],"categories_nodes":[],"categories_segments":[],"categories_sizes":[],"default_left":[0,0,0,0,0,0,0,0,0,0,0,0,0,0,0,0,0,0,0,0,0,0,0,0,0,0,0,0,0,0,0,0,0,0,0,0,0,0,0,0,0],"id":21,"left_children":[1,3,5,7,9,11,13,15,17,19,21,23,-1,25,-1,27,-1,29,31,-1,-1,33,35,37,39,-1,-1,-1,-1,-1,-1,-1,-1,-1,-1,-1,-1,-1,-1,-1,-1],"loss_changes":[6.3142822E1,7.063843E1,6.698083E1,7.805652E1,3.315918E0,1.1992477E1,3.5803032E-1,6.177765E0,4.284632E0,3.3611975E0,6.171875E-1,2.5151978E0,0E0,2.3419704E-1,0E0,2.1602936E0,0E0,2.1654058E0,5.6134224E-1,0E0,0E0,4.506836E-1,1.7397963E0,4.292604E0,1.4166336E0,0E0,0E0,0E0,0E0,0E0,0E0,0E0,0E0,0E0,0E0,0E0,0E0,0E0,0E0,0E0,0E0],"parents":[2147483647,0,0,1,1,2,2,3,3,4,4,5,5,6,6,7,7,8,8,9,9,10,10,11,11,13,13,15,15,17,17,18,18,21,21,22,22,23,23,24,24],"right_children":[2,4,6,8,10,12,14,16,18,20,22,24,-1,26,-1,28,-1,30,32,-1,-1,34,36,38,40,-1,-1,-1,-1,-1,-1,-1,-1,-1,-1,-1,-1,-1,-1,-1,-1],"split_conditions":[1.18E2,1.11E2,9E0,7E0,3E0,1E1,6.9E1,4E0,5.4E1,1E0,2E0,3E0,1.9308183E-2,4E0,2.038801E-2,2.321E3,2.1327024E-2,1.1E1,1.7E2,1.06148474E-1,-4.0306963E-2,1.3E1,1.203E3,3E0,4.0605E4,-1.9223271E-2,1.5466459E-2,-5.0749537E-2,-3.566019E-2,-2.6750868E-2,8.405369E-3,1.9922204E-2,-3.120464E-2,-5.110171E-2,-5.4462295E-2,6.0864992E-2,-4.5129787E-2,-4.4351038E-2,2.0175667E-2,1.5400645E-2,-5.370757E-2],"split_indices":[1,1,30,30,26,0,6,33,26,32,28,35,0,0,0,17,0,0,6,0,0,26,24,30,8,0,0,0,0,0,0,0,0,0,0,0,0,0,0,0,0],"split_type":[0,0,0,0,0,0,0,0,0,0,0,0,0,0,0,0,0,0,0,0,0,0,0,0,0,0,0,0,0,0,0,0,0,0,0,0,0,0,0,0,0],"sum_hessian":[1.3267788E4,1.2601058E4,6.6673065E2,9.711934E2,1.1629864E4,4.118433E2,2.5488734E2,6.4423126E2,3.2696213E2,4.5098786E0,1.16253545E4,3.854816E2,2.6361685E1,5.893952E0,2.489934E2,6.3151276E2,1.2718537E1,6.845991E1,2.585022E2,1.796704E0,2.7131746E0,1.1619575E4,5.779727E0,5.4906376E1,3.3057523E2,3.3028917E0,2.5910602E0,4.999188E2,1.3159395E2,3.260249E1,3.585742E1,2.5718863E2,1.3135877E0,7.014211E2,1.0918154E4,1.1877844E0,4.5919423E0,4.1997562E1,1.2908816E1,2.5940742E0,3.2798114E2],"tree_param":{"num_deleted":"0","num_feature":"42","num_nodes":"41","size_leaf_vector":"0"}},{"base_weights":[-2.5759226E-1,-3.357169E-1,9.360396E-1,7.1530324E-1,-4.4151682E-1,1.2417794E0,2.22143E-1,8.9778256E-1,-5.4378755E-2,-1.89302E-1,-5.1237357E-1,1.2899108E0,1.9308183E-2,7.7354276E-1,2.038801E-2,1.0877467E0,2.3771763E-1,-5.456819E-2,-1.3884808E-1,-5.154099E-1,1.6067479E0,1.0083274E0,1.3297735E0,1.0476368E-1,1.5466459E-2,-5.118386E-2,1.11387625E-1,2.083243E-1,1.925629E-2,-3.1438943E-2,2.7923808E-3,-4.1997697E-2,-5.321731E-2,2.4064587E-1,-4.31573E-2,1.193821E-1,1.6112497E-2,1.4909563E-2,1.3357271E-1],"categories":[],"categories_nodes":[],"categories_segments":[],"categories_sizes":[],"default_left":[0,0,0,0,0,0,0,0,0,0,0,0,0,0,0,0,0,0,0,0,0,0,0,0,0,0,0,0,0,0,0,0,0,0,0,0,0,0,0],"id":22,"left_children":[1,3,5,7,9,11,13,15,-1,17,19,21,-1,23,-1,25,27,-1,29,31,33,35,37,-1,-1,-1,-1,-1,-1,-1,-1,-1,-1,-1,-1,-1,-1,-1,-1],"loss_changes":[1.2941633E3,1.4484623E3,1.8581763E2,2.742328E2,2.113667E2,2.9870728E1,2.429017E0,1.3027191E2,0E0,4.661596E1,6.0262207E1,5.0613403E0,0E0,1.1741748E0,0E0,3.434503E1,1.9092667E1,0E0,6.664131E1,1.4533691E1,2.2977528E1,1.1573219E1,3.2908325E0,0E0,0E0,0E0,0E0,0E0,0E0,0E0,0E0,0E0,0E0,0E0,0E0,0E0,0E0,0E0,0E0],"parents":[2147483647,0,0,1,1,2,2,3,3,4,4,5,5,6,6,7,7,9,9,10,10,11,11,13,13,15,15,16,16,18,18,19,19,20,20,21,21,22,22],"right_children":[2,4,6,8,10,12,14,16,-1,18,20,22,-1,24,-1,26,28,-1,30,32,34,36,38,-1,-1,-1,-1,-1,-1,-1,-1,-1,-1,-1,-1,-1,-1,-1,-1],"split_conditions":[1.18E2,1.11E2,9E0,3.9485E4,1E0,1E1,6.9E1,1E1,-5.4378755E-2,6E0,1.15E2,3E0,1.9308183E-2,4E0,2.038801E-2,1E0,2.7E1,-5.456819E-2,1.6302E4,2E0,5E0,3E0,4.0605E4,1.0476368E-1,1.5466459E-2,-5.118386E-2,1.11387625E-1,2.083243E-1,1.925629E-2,-3.1438943E-2,2.7923808E-3,-4.1997697E-2,-5.321731E-2,2.4064587E-1,-4.31573E-2,1.193821E-1,1.6112497E-2,1.4909563E-2,1.3357271E-1],"split_indices":[1,1,30,15,40,0,6,30,0,9,13,35,0,0,0,0,6,0,12,40,27,30,8,0,0,0,0,0,0,0,0,0,0,0,0,0,0,0,0],"split_type":[0,0,0,0,0,0,0,0,0,0,0,0,0,0,0,0,0,0,0,0,0,0,0,0,0,0,0,0,0,0,0,0,0,0,0,0,0,0,0],"sum_hessian":[1.3873749E4,1.3022152E4,8.5159674E2,1.1904473E3,1.1831705E4,5.957262E2,2.5587054E2,1.0400066E3,1.504406E2,2.5957598E3,9.235945E3,5.6936456E2,2.6361685E1,6.8771534E0,2.489934E2,8.070832E2,2.329234E2,3.2069855E2,2.2750613E3,9.223486E3,1.2458937E1,7.386815E1,4.954964E2,4.286093E0,2.5910602E0,1.2673183E1,7.9441003E2,4.4848976E0,2.284385E2,1.1079578E3,1.1671035E3,1.3819708E3,7.8415156E3,8.818498E0,3.6404393E0,6.0264256E1,1.3603895E1,2.6166983E0,4.928797E2],"tree_param":{"num_deleted":"0","num_feature":"42","num_nodes":"39","size_leaf_vector":"0"}},{"base_weights":[1.7236316E-1,1.1505691E0,-1.6369498E-1,-1.04972936E-1,1.5233569E0,-2.6256338E-1,1.0195856E0,5.9054744E-1,-4.08362E-1,2.048597E0,8.7173647E-1,8.6948836E-1,-3.740588E-1,1.1400201E0,7.764388E-2,-5.4266967E-2,1.4203607E0,-5.083018E-1,2.848345E-1,2.271101E0,1.5575492E0,-3.0675966E-1,1.3389903E0,9.4330233E-1,-5.358038E-2,-5.282894E-1,-5.8189984E-2,1.1598796E0,7.488125E-2,1.4517064E-1,5.2664932E-2,-5.1366806E-2,6.810856E-2,-1.0622187E-2,9.2615865E-2,-4.2975012E-2,2.314781E-1,2.7717689E-2,1.9236043E-1,2.9488733E-2,-4.4864014E-2,1.6441424E-1,5.2610118E-2,3.4854706E-2,9.798689E-2,1.4201187E-1,-5.2921858E-2,-2.8737439E-2,2.3538886E-1,1.0862392E-1,1.2085166E-1],"categories":[],"categories_nodes":[],"categories_segments":[],"categories_sizes":[],"default_left":[0,0,0,0,0,0,0,0,0,0,0,0,0,0,0,0,0,0,0,0,0,0,0,0,0,0,0,0,0,0,0,0,0,0,0,0,0,0,0,0,0,0,0,0,0,0,0,0,0,0,0],"id":23,"left_children":[1,3,5,7,9,11,13,15,17,19,21,23,25,27,-1,-1,29,31,33,35,37,39,41,43,-1,45,47,49,-1,-1,-1,-1,-1,-1,-1,-1,-1,-1,-1,-1,-1,-1,-1,-1,-1,-1,-1,-1,-1,-1,-1],"loss_changes":[4.9772554E3,1.8121978E3,1.3186924E3,1.8746526E2,1.01991943E3,1.313178E3,2.4568604E1,2.5456256E2,4.2984444E1,1.7697607E2,7.350158E2,9.727368E1,4.612932E2,3.6310425E0,0E0,0E0,3.607788E0,3.8016205E0,1.9800642E1,1.3486768E2,2.4241711E2,3.253329E1,2.3614648E2,1.8942322E1,0E0,1.2270264E1,1.7187551E3,6.549072E-1,0E0,0E0,0E0,0E0,0E0,0E0,0E0,0E0,0E0,0E0,0E0,0E0,0E0,0E0,0E0,0E0,0E0,0E0,0E0,0E0,0E0,0E0,0E0],"parents":[2147483647,0,0,1,1,2,2,3,3,4,4,5,5,6,6,7,7,8,8,9,9,10,10,11,11,12,12,13,13,16,16,17,17,18,18,19,19,20,20,21,21,22,22,23,23,25,25,26,26,27,27],"right_children":[2,4,6,8,10,12,14,16,18,20,22,24,26,28,-1,-1,30,32,34,36,38,40,42,44,-1,46,48,50,-1,-1,-1,-1,-1,-1,-1,-1,-1,-1,-1,-1,-1,-1,-1,-1,-1,-1,-1,-1,-1,-1,-1],"split_conditions":[1E0,4E0,1.18E2,1.07E2,9E0,1.11E2,9E0,7E0,4.1818E4,1E0,2.7E1,3.9485E4,5E0,1E1,7.764388E-2,-5.4266967E-2,9.6E1,1E0,9E0,4.5E1,2.2862E4,1.9571E4,3.0898E4,2.7E1,-5.358038E-2,1E0,6.03E2,5E0,7.488125E-2,1.4517064E-1,5.2664932E-2,-5.1366806E-2,6.810856E-2,-1.0622187E-2,9.2615865E-2,-4.2975012E-2,2.314781E-1,2.7717689E-2,1.9236043E-1,2.9488733E-2,-4.4864014E-2,1.6441424E-1,5.2610118E-2,3.4854706E-2,9.798689E-2,1.4201187E-1,-5.2921858E-2,-2.8737439E-2,2.3538886E-1,1.0862392E-1,1.2085166E-1],"split_indices":[40,10,1,1,9,1,30,1,11,28,26,15,10,0,0,0,1,34,0,7,12,18,0,26,0,6,7,35,0,0,0,0,0,0,0,0,0,0,0,0,0,0,0,0,0,0,0,0,0,0,0],"split_type":[0,0,0,0,0,0,0,0,0,0,0,0,0,0,0,0,0,0,0,0,0,0,0,0,0,0,0,0,0,0,0,0,0,0,0,0,0,0,0,0,0,0,0,0,0,0,0,0,0,0,0],"sum_hessian":[1.5139102E4,3.8704578E3,1.1268644E4,8.862621E2,2.9841958E3,1.040042E4,8.682235E2,2.688883E2,6.173738E2,1.6511434E3,1.3330522E3,9.3188385E2,9.468536E3,5.781619E2,2.9006155E2,1.1381089E2,1.5507742E2,5.398142E2,7.755959E1,1.1337795E3,5.173639E2,3.785717E2,9.544805E2,8.85691E2,4.6192818E1,6.3616396E3,3.1068967E3,5.483599E2,2.9802025E1,1.492194E2,5.8580246E0,5.379552E2,1.8590173E0,4.869904E1,2.8860552E1,1.7903728E1,1.1158759E3,1.1541772E2,4.019462E2,7.203356E1,3.0653812E2,6.932264E2,2.6125412E2,5.190981E1,8.337812E2,2.3042605E0,6.3593354E3,2.8381133E3,2.6878336E2,2.2739685E2,3.2096304E2],"tree_param":{"num_deleted":"0","num_feature":"42","num_nodes":"51","size_leaf_vector":"0"}},{"base_weights":[-1.2893786E-1,-5.475054E-2,6.494066E-2,-4.4259012E-1,3.8168234E-1,7.588551E-2,-5.438127E-1,-2.6095596E-1,5.4013443E-1,7.712266E-1,-3.201098E-1,-5.4506284E-1,5.972028E-2,-4.1050234E-1,1.5297468E-1,1.184751E0,1.4588913E-1,-3.1654462E-2,1.7804094E-1,-4.755665E-2,3.0703494E-2,-5.453793E-2,-2.309489E-2,-4.593047E-2,1.2144003E-1,-4.2351127E-2,2.0693381E-1,5.801437E-2,-3.6785755E-2,2.831789E-2,2.0066135E-1,-1.682867E-2,5.9088856E-2],"categories":[],"categories_nodes":[],"categories_segments":[],"categories_sizes":[],"default_left":[0,0,0,0,0,0,0,0,0,0,0,0,0,0,0,0,0,0,0,0,0,0,0,0,0,0,0,0,0,0,0,0,0],"id":24,"left_children":[1,-1,3,5,7,9,11,13,15,17,19,21,23,25,27,29,31,-1,-1,-1,-1,-1,-1,-1,-1,-1,-1,-1,-1,-1,-1,-1,-1],"loss_changes":[1.154527E3,0E0,1.5633193E3,1.961637E2,6.098579E2,1.6856485E2,2.3916016E0,7.341799E1,1.2206318E3,2.4437569E2,3.818652E1,1.842041E-1,4.9712358E0,2.896814E1,7.034755E1,1.350114E3,4.1698828E2,0E0,0E0,0E0,0E0,0E0,0E0,0E0,0E0,0E0,0E0,0E0,0E0,0E0,0E0,0E0,0E0],"parents":[2147483647,0,0,2,2,3,3,4,4,5,5,6,6,7,7,8,8,9,9,10,10,11,11,12,12,13,13,14,14,15,15,16,16],"right_children":[2,-1,4,6,8,10,12,14,16,18,20,22,24,26,28,30,32,-1,-1,-1,-1,-1,-1,-1,-1,-1,-1,-1,-1,-1,-1,-1,-1],"split_conditions":[9E0,-5.475054E-2,5.9E1,1.5E1,1E0,2E0,4.7E1,1.62E2,2E0,2E0,2E0,5.6E1,3E0,7.9E1,1.5465E4,2E0,2E0,-3.1654462E-2,1.7804094E-1,-4.755665E-2,3.0703494E-2,-5.453793E-2,-2.309489E-2,-4.593047E-2,1.2144003E-1,-4.2351127E-2,2.0693381E-1,5.801437E-2,-3.6785755E-2,2.831789E-2,2.0066135E-1,-1.682867E-2,5.9088856E-2],"split_indices":[9,0,6,26,40,35,26,7,35,40,33,35,33,4,12,40,33,0,0,0,0,0,0,0,0,0,0,0,0,0,0,0,0],"split_type":[0,0,0,0,0,0,0,0,0,0,0,0,0,0,0,0,0,0,0,0,0,0,0,0,0,0,0,0,0,0,0,0,0],"sum_hessian":[1.4225418E4,4.5026816E3,9.722736E3,3.7359856E3,5.986751E3,6.102833E2,3.1257021E3,1.1840247E3,4.8027266E3,2.2109967E2,3.8918365E2,3.119338E3,6.364257E0,8.697915E2,3.142332E2,1.8218608E3,2.9808655E3,1.06737015E2,1.14362656E2,3.1206955E2,7.711411E1,3.1154626E3,3.875225E0,4.806137E0,1.5581198E0,8.660774E2,3.7141101E0,1.7257726E2,1.4165593E2,8.694406E2,9.524202E2,1.7476335E3,1.2332319E3],"tree_param":{"num_deleted":"0","num_feature":"42","num_nodes":"33","size_leaf_vector":"0"}},{"base_weights":[5.5519086E-1,2.0091224E0,-4.7750214E-1,-5.168691E-1,2.2999845E0,-3.6212397E-1,-5.191865E-1,-5.2492815E-1,1.841819E-2,2.3029323E0,-2.3826136E-1,-4.996031E-1,-1.9952069E-1,-5.202884E-1,2.1831031E-1,-5.3277817E-2,-4.6944323E-1,-3.0098055E-2,2.3034446E-1,2.5940437E-2,-4.593397E-2,-5.0289524E-1,8.324258E-2,2.4666627E-1,-3.7330186E-1,-4.700431E-1,-5.3108126E-1,-5.273984E-2,-2.4928663E-2,-5.156196E-2,-4.0372435E-2,-3.4620177E-2,1.4605165E-1,-1.4520304E-2,1.3568883E-1,-4.954811E-2,-7.256426E-3,-4.7382083E-2,1.2478918E-1,-5.318836E-2,-2.0265726E-2],"categories":[],"categories_nodes":[],"categories_segments":[],"categories_sizes":[],"default_left":[0,0,0,0,0,0,0,0,0,0,0,0,0,0,0,0,0,0,0,0,0,0,0,0,0,0,0,0,0,0,0,0,0,0,0,0,0,0,0,0,0],"id":25,"left_children":[1,3,5,7,9,11,13,15,-1,17,19,21,23,25,-1,-1,27,-1,-1,-1,-1,29,31,33,35,37,39,-1,-1,-1,-1,-1,-1,-1,-1,-1,-1,-1,-1,-1,-1],"loss_changes":[2.490977E4,5.0632812E3,4.6467773E1,4.120758E0,4.6779297E1,5.7528015E1,2.2348999E1,5.671692E-2,0E0,8.927734E0,1.0074164E0,2.7209167E0,9.179708E1,3.6124268E0,0E0,0E0,1.089838E0,0E0,0E0,0E0,0E0,1.5439453E0,5.651326E0,1.4468976E2,3.1254303E1,8.8203125E0,1.4351807E0,0E0,0E0,0E0,0E0,0E0,0E0,0E0,0E0,0E0,0E0,0E0,0E0,0E0,0E0],"parents":[2147483647,0,0,1,1,2,2,3,3,4,4,5,5,6,6,7,7,9,9,10,10,11,11,12,12,13,13,16,16,21,21,22,22,23,23,24,24,25,25,26,26],"right_children":[2,4,6,8,10,12,14,16,-1,18,20,22,24,26,-1,-1,28,-1,-1,-1,-1,30,32,34,36,38,40,-1,-1,-1,-1,-1,-1,-1,-1,-1,-1,-1,-1,-1,-1],"split_conditions":[3.4E1,1E0,1E0,5E0,2E1,5.02E2,1.2E1,1E0,1.841819E-2,3E0,2.2E1,9E0,3E0,2E0,2.1831031E-1,-5.3277817E-2,8E0,-3.0098055E-2,2.3034446E-1,2.5940437E-2,-4.593397E-2,5.8E1,2E0,9.8E1,9E0,2E0,2.6E1,-5.273984E-2,-2.4928663E-2,-5.156196E-2,-4.0372435E-2,-3.4620177E-2,1.4605165E-1,-1.4520304E-2,1.3568883E-1,-4.954811E-2,-7.256426E-3,-4.7382083E-2,1.2478918E-1,-5.318836E-2,-2.0265726E-2],"split_indices":[6,2,40,34,26,6,2,34,0,3,26,2,13,30,0,0,30,0,0,0,0,26,39,27,9,33,39,0,0,0,0,0,0,0,0,0,0,0,0,0,0],"split_type":[0,0,0,0,0,0,0,0,0,0,0,0,0,0,0,0,0,0,0,0,0,0,0,0,0,0,0,0,0,0,0,0,0,0,0,0,0,0,0,0,0],"sum_hessian":[1.6588672E4,6.888868E3,9.699804E3,7.112489E2,6.177619E3,2.5768962E3,7.1229077E3,7.034139E2,7.834987E0,6.170546E3,7.0734115E0,1.3951993E3,1.1816969E3,7.1208115E3,2.0962481E0,6.08694E2,9.471992E1,1.0988021E0,6.1694473E3,2.1223855E0,4.951026E0,1.3874994E3,7.6999464E0,3.3111987E2,8.50577E2,1.2669841E3,5.8538276E3,7.387668E1,2.0843235E1,1.2259961E3,1.6150336E2,6.4404106E0,1.2595359E0,2.4537897E2,8.574093E1,6.043877E2,2.4618933E2,1.2649268E3,2.0573635E0,5.838943E3,1.4884432E1],"tree_param":{"num_deleted":"0","num_feature":"42","num_nodes":"41","size_leaf_vector":"0"}},{"base_weights":[1.2624642E0,1.6424869E0,-4.4036332E-1,2.3026375E-1,1.2525225E0,1.6144271E0,-5.2510893E-1,2.258003E-1,1.72384E0,2.2506633E0,9.920603E-1,2.3984508E-1,-5.4692084E-1,-7.946397E-2,9.942466E-1,-5.2784467E-1,1.8612919E0,2.4131215E-1,-4.6239585E-2,-1.1773463E-1,1.8453724E0,-5.4862004E-2,1.2048471E0,1.4014894E-1,-1.610056E-2,1.1527629E-1,-4.667229E-2,4.2538702E-2,-5.47063E-2,1.9690458E-1,-5.475196E-2,1.3146693E-1,-4.525246E-2,2.1471779E-1,-4.6221096E-2,1.9615178E-1,-3.1031176E-2],"categories":[],"categories_nodes":[],"categories_segments":[],"categories_sizes":[],"default_left":[0,0,0,0,0,0,0,0,0,0,0,0,0,0,0,0,0,0,0,0,0,0,0,0,0,0,0,0,0,0,0,0,0,0,0,0,0],"id":26,"left_children":[1,3,5,-1,7,9,11,13,15,17,19,-1,21,23,25,27,29,-1,-1,31,33,-1,35,-1,-1,-1,-1,-1,-1,-1,-1,-1,-1,-1,-1,-1,-1],"loss_changes":[1.2862824E4,4.1804062E3,6.324776E2,0E0,4.944035E3,5.4755005E1,2.2350226E2,7.544492E2,2.1683262E3,3.213559E1,7.0807205E1,0E0,1.0958252E1,2.7827167E2,2.1229321E2,7.6276016E0,1.7141934E3,0E0,0E0,1.6583672E1,3.0382004E1,0E0,4.8107247E0,0E0,0E0,0E0,0E0,0E0,0E0,0E0,0E0,0E0,0E0,0E0,0E0,0E0,0E0],"parents":[2147483647,0,0,1,1,2,2,4,4,5,5,6,6,7,7,8,8,9,9,10,10,12,12,13,13,14,14,15,15,16,16,19,19,20,20,22,22],"right_children":[2,4,6,-1,8,10,12,14,16,18,20,-1,22,24,26,28,30,-1,-1,32,34,-1,36,-1,-1,-1,-1,-1,-1,-1,-1,-1,-1,-1,-1,-1,-1],"split_conditions":[2E0,7E0,2E0,2.3026375E-1,1E0,8E0,1.5E1,2.9369E4,1.11E2,2.06E2,3E0,2.3984508E-1,1.7E2,2.7E1,6.03E2,2.3E1,1.18E2,2.4131215E-1,-4.6239585E-2,3E0,1.1E1,-5.4862004E-2,1.12E2,1.4014894E-1,-1.610056E-2,1.1527629E-1,-4.667229E-2,4.2538702E-2,-5.47063E-2,1.9690458E-1,-5.475196E-2,1.3146693E-1,-4.525246E-2,2.1471779E-1,-4.6221096E-2,1.9615178E-1,-3.1031176E-2],"split_indices":[34,9,31,0,35,9,26,16,1,29,35,0,6,6,7,6,1,0,0,40,30,0,1,0,0,0,0,0,0,0,0,0,0,0,0,0,0],"split_type":[0,0,0,0,0,0,0,0,0,0,0,0,0,0,0,0,0,0,0,0,0,0,0,0,0,0,0,0,0,0,0,0,0,0,0,0,0],"sum_hessian":[1.9875123E4,1.6248872E4,3.6262517E3,6.0322627E3,1.0216609E4,1.4291855E2,3.4833333E3,3.2148442E3,7.0017646E3,6.937808E1,7.354046E1,2.498886E1,3.4583442E3,2.3014807E3,9.133636E2,4.0266223E2,6.5991025E3,6.556274E1,3.8153443E0,3.2340847E1,4.119961E1,3.4556792E3,2.6651804E0,1.19262146E2,2.1822185E3,8.241533E2,8.921029E1,7.5400496E0,3.951222E2,6.316718E3,2.8238492E2,5.5724006E0,2.6768448E1,3.649588E1,4.703733E0,1.581022E0,1.0841583E0],"tree_param":{"num_deleted":"0","num_feature":"42","num_nodes":"37","size_leaf_vector":"0"}},{"base_weights":[-3.001667E-1,2.4315692E-1,-4.5884308E-1,9.233112E-1,-5.3361154E-1,7.8311965E-2,-4.799086E-1,1.3592086E0,-4.020721E-1,1.0833662E0,-5.390407E-1,1.2443436E0,-4.783913E-1,-4.1801232E-1,-5.2379394E-1,-4.699235E-1,1.8278737E0,2.1446711E-1,-4.6115854E-1,-3.5945635E-2,1.9978602E-1,-5.4038715E-1,5.493572E-2,1.8170042E0,-2.4454726E-1,-1.2290697E-2,-5.460739E-2,-2.8872487E-1,-5.305376E-1,-5.3543377E-1,-3.6481395E-1,-4.8003238E-2,-8.7580207E-4,2.213523E-1,9.268897E-2,-2.4834784E-2,5.0480943E-2,-1.007102E-2,-5.120433E-2,-9.180947E-3,-5.437658E-2,-5.141858E-2,2.2338045E-1,-4.3112393E-2,3.867485E-2,2.6768913E-2,-4.462431E-2,3.548306E-2,-4.008239E-2,-4.9616504E-2,-5.4344054E-2,-4.5119226E-2,-5.399374E-2,-2.3394486E-2,-5.404207E-2],"categories":[],"categories_nodes":[],"categories_segments":[],"categories_sizes":[],"default_left":[0,0,0,0,0,0,0,0,0,0,0,0,0,0,0,0,0,0,0,0,0,0,0,0,0,0,0,0,0,0,0,0,0,0,0,0,0,0,0,0,0,0,0,0,0,0,0,0,0,0,0,0,0,0,0],"id":27,"left_children":[1,3,5,7,9,11,13,15,17,19,21,23,25,27,29,31,33,35,37,-1,-1,39,-1,41,43,45,-1,47,49,51,53,-1,-1,-1,-1,-1,-1,-1,-1,-1,-1,-1,-1,-1,-1,-1,-1,-1,-1,-1,-1,-1,-1,-1,-1],"loss_changes":[1.1888511E3,1.6474453E3,1.2079712E2,9.6096094E2,1.336554E1,2.62581E2,2.7676514E1,1.0734465E3,1.51147995E1,7.5850644E0,2.424347E0,1.1188219E2,8.633793E0,6.1901062E1,1.0917114E1,1.1891975E0,3.4409277E2,5.0610647E0,6.853279E0,0E0,0E0,2.148285E0,0E0,9.2980194E1,4.546827E0,4.463273E0,0E0,1.4349417E2,7.41272E-1,1.878418E0,9.360615E0,0E0,0E0,0E0,0E0,0E0,0E0,0E0,0E0,0E0,0E0,0E0,0E0,0E0,0E0,0E0,0E0,0E0,0E0,0E0,0E0,0E0,0E0,0E0,0E0],"parents":[2147483647,0,0,1,1,2,2,3,3,4,4,5,5,6,6,7,7,8,8,9,9,10,10,11,11,12,12,13,13,14,14,15,15,16,16,17,17,18,18,21,21,23,23,24,24,25,25,27,27,28,28,29,29,30,30],"right_children":[2,4,6,8,10,12,14,16,18,20,22,24,26,28,30,32,34,36,38,-1,-1,40,-1,42,44,46,-1,48,50,52,54,-1,-1,-1,-1,-1,-1,-1,-1,-1,-1,-1,-1,-1,-1,-1,-1,-1,-1,-1,-1,-1,-1,-1,-1],"split_conditions":[1E0,7E0,1E0,6.1E1,2.21E2,6E0,2E0,1.8E1,6.5E1,3.9158E4,4E0,2.44E2,7E0,6E0,1.18E2,1E0,2.44E2,3E0,9.6E1,-3.5945635E-2,1.9978602E-1,9.6E1,5.493572E-2,1.8E1,1E0,4.76E2,-5.460739E-2,1E0,2E0,9.9E1,9E0,-4.8003238E-2,-8.7580207E-4,2.213523E-1,9.268897E-2,-2.4834784E-2,5.0480943E-2,-1.007102E-2,-5.120433E-2,-9.180947E-3,-5.437658E-2,-5.141858E-2,2.2338045E-1,-4.3112393E-2,3.867485E-2,2.6768913E-2,-4.462431E-2,3.548306E-2,-4.008239E-2,-4.9616504E-2,-5.4344054E-2,-4.5119226E-2,-5.399374E-2,-2.3394486E-2,-5.404207E-2],"split_indices":[40,27,30,26,12,27,32,26,26,17,31,6,27,27,1,2,6,2,1,0,0,1,0,26,2,6,0,35,40,1,30,0,0,0,0,0,0,0,0,0,0,0,0,0,0,0,0,0,0,0,0,0,0,0,0],"split_type":[0,0,0,0,0,0,0,0,0,0,0,0,0,0,0,0,0,0,0,0,0,0,0,0,0,0,0,0,0,0,0,0,0,0,0,0,0,0,0,0,0,0,0,0,0,0,0,0,0,0,0,0,0,0,0],"sum_hessian":[1.3787463E4,3.1163252E3,1.0671138E4,1.6613899E3,1.4549354E3,4.025929E2,1.0268545E4,1.2501951E3,4.111948E2,4.204372E0,1.450731E3,1.2969908E2,2.728938E2,4.264451E3,6.0040938E3,2.549927E2,9.9520233E2,3.5730824E1,3.7546396E2,1.8664913E0,2.3378808E0,1.4494414E3,1.2895882E0,9.351193E1,3.6187145E1,3.4752205E1,2.381416E2,1.9860815E3,2.2783694E3,5.5922817E3,4.1181223E2,2.4948305E2,5.509661E0,6.9588513E2,2.9931726E2,1.383E1,2.1900822E1,4.6816036E1,3.2864792E2,1.1045919E1,1.4383955E3,1.4147945E1,7.936399E1,2.8176722E1,8.010425E0,2.135646E1,1.3395744E1,2.9430798E2,1.6917736E3,6.3260455E2,1.6457649E3,2.889281E2,5.3033535E3,2.3729951E2,1.7451271E2],"tree_param":{"num_deleted":"0","num_feature":"42","num_nodes":"55","size_leaf_vector":"0"}},{"base_weights":[-5.1986283E-1,-4.4628564E-1,-5.387818E-1,-4.8332748E-1,6.2381504E-3,-4.521798E-1,-5.4182637E-1,-3.953303E-1,-5.470961E-1,-3.996716E-1,4.6813056E-1,-2.7275503E-1,-5.4603484E-2,-5.200075E-1,-5.4622497E-2,-4.5637664E-1,-2.1147841E-1,-5.477779E-2,1.8228274E-2,-3.078851E-2,-5.4033365E-2,1.81242E0,-9.101744E-2,-9.9581905E-2,-5.051089E-1,-4.240344E-1,-5.4729916E-2,-4.7452945E-2,-2.2953313E-2,9.1604635E-2,-4.1416805E-2,-5.21588E-2,6.5169565E-2,1.953741E-1,-3.535517E-2,5.249949E-2,-4.1127693E-2,-2.4006147E-2,1.625223E-1,-3.8459852E-2,-5.385995E-2,-2.9693415E-2,-4.6675257E-2],"categories":[],"categories_nodes":[],"categories_segments":[],"categories_sizes":[],"default_left":[0,0,0,0,0,0,0,0,0,0,0,0,0,0,0,0,0,0,0,0,0,0,0,0,0,0,0,0,0,0,0,0,0,0,0,0,0,0,0,0,0,0,0],"id":28,"left_children":[1,3,5,7,9,11,13,15,17,19,21,23,-1,25,-1,27,29,-1,-1,31,-1,33,35,37,39,41,-1,-1,-1,-1,-1,-1,-1,-1,-1,-1,-1,-1,-1,-1,-1,-1,-1],"loss_changes":[1.8181885E1,4.547522E1,2.5297852E0,1.3854553E1,3.885476E1,5.970894E0,6.911621E-1,1.1769043E1,8.2159424E-1,5.7072678E0,7.302247E1,5.052141E0,0E0,4.2873535E0,0E0,3.155777E0,6.1032463E1,0E0,0E0,1.0895525E1,0E0,9.421089E0,1.3908948E1,1.829674E1,1.0416031E-2,1.9597244E0,0E0,0E0,0E0,0E0,0E0,0E0,0E0,0E0,0E0,0E0,0E0,0E0,0E0,0E0,0E0,0E0,0E0],"parents":[2147483647,0,0,1,1,2,2,3,3,4,4,5,5,6,6,7,7,8,8,9,9,10,10,11,11,13,13,15,15,16,16,19,19,21,21,22,22,23,23,24,24,25,25],"right_children":[2,4,6,8,10,12,14,16,18,20,22,24,-1,26,-1,28,30,-1,-1,32,-1,34,36,38,40,42,-1,-1,-1,-1,-1,-1,-1,-1,-1,-1,-1,-1,-1,-1,-1,-1,-1],"split_conditions":[1E0,4.143E4,1E0,7E0,4.7E1,1.2E1,1E0,1.2923E4,4E0,5.3E1,1.7E2,3.63E2,-5.4603484E-2,1.2E1,-5.4622497E-2,4E0,3.7E1,-5.477779E-2,1.8228274E-2,1.8E1,-5.4033365E-2,1E0,3.43E2,7.4E1,4.31E2,2E0,-5.4729916E-2,-4.7452945E-2,-2.2953313E-2,9.1604635E-2,-4.1416805E-2,-5.21588E-2,6.5169565E-2,1.953741E-1,-3.535517E-2,5.249949E-2,-4.1127693E-2,-2.4006147E-2,1.625223E-1,-3.8459852E-2,-5.385995E-2,-2.9693415E-2,-4.6675257E-2],"split_indices":[40,11,30,27,26,27,35,12,31,6,6,6,0,27,0,30,26,0,0,26,0,2,6,26,6,30,0,0,0,0,0,0,0,0,0,0,0,0,0,0,0,0,0],"split_type":[0,0,0,0,0,0,0,0,0,0,0,0,0,0,0,0,0,0,0,0,0,0,0,0,0,0,0,0,0,0,0,0,0,0,0,0,0,0,0,0,0,0,0],"sum_hessian":[1.3233402E4,2.7117634E3,1.0521639E4,2.5065212E3,2.052422E2,3.624125E2,1.0159226E4,1.0562092E3,1.4503121E3,1.0931297E2,9.592923E1,1.2580825E2,2.3660428E2,1.7244535E3,8.434772E3,7.918127E2,2.643965E2,1.4492064E3,1.1057081E0,3.0512774E1,7.88002E1,2.7521454E1,6.8407776E1,7.2902596E1,5.290565E1,3.854668E2,1.3389867E3,7.32133E2,5.967971E1,3.975079E1,2.2464572E2,1.7886024E1,1.2626748E1,2.5927755E1,1.5936984E0,2.3180775E1,4.5227005E1,6.820809E1,4.694502E0,1.4220232E1,3.868542E1,9.896506E1,2.8650174E2],"tree_param":{"num_deleted":"0","num_feature":"42","num_nodes":"43","size_leaf_vector":"0"}},{"base_weights":[-5.4474276E-1,-5.4511184E-1,-3.9837772E-1,-5.4715283E-2,-5.3111756E-1,-5.316499E-2,1.2621261E-1,-4.5913506E-1,-5.4638016E-1,-5.3327303E-2,-1.9777523E-1,-5.477965E-2,-3.8911736E-1,1.5489271E-1,-5.0643127E-2,-5.0935984E-2,4.063904E-2],"categories":[],"categories_nodes":[],"categories_segments":[],"categories_sizes":[],"default_left":[0,0,0,0,0,0,0,0,0,0,0,0,0,0,0,0,0],"id":29,"left_children":[1,3,5,-1,7,-1,-1,9,11,-1,13,-1,15,-1,-1,-1,-1],"loss_changes":[4.951172E-1,8.47168E-2,8.828063E0,0E0,1.6242676E0,0E0,0E0,5.801285E0,9.93042E-2,0E0,3.7958694E1,0E0,1.7350066E0,0E0,0E0,0E0,0E0],"parents":[2147483647,0,0,1,1,2,2,4,4,7,7,8,8,10,10,12,12],"right_children":[2,4,6,-1,8,-1,-1,10,12,-1,14,-1,16,-1,-1,-1,-1],"split_conditions":[1.126E3,5E0,8E0,-5.4715283E-2,7.4E1,-5.316499E-2,1.2621261E-1,6.11E2,1.137E3,-5.3327303E-2,6.34E2,-5.477965E-2,8E0,1.5489271E-1,-5.0643127E-2,-5.0935984E-2,4.063904E-2],"split_indices":[29,2,9,0,7,0,0,6,27,0,6,0,9,0,0,0,0],"split_type":[0,0,0,0,0,0,0,0,0,0,0,0,0,0,0,0,0],"sum_hessian":[1.3176012E4,1.3140151E4,3.5859882E1,1.1434414E4,1.7057379E3,3.3824917E1,2.0349646E0,3.03838E2,1.4018999E3,2.3588571E2,6.795229E1,1.3869255E3,1.4974351E1,9.601058E0,5.835124E1,1.332062E1,1.6537315E0],"tree_param":{"num_deleted":"0","num_feature":"42","num_nodes":"17","size_leaf_vector":"0"}},{"base_weights":[-4.9191964E-1,-1.936697E-1,-5.164649E-1,-3.5059822E-1,1.4765748E-1,-5.3821284E-1,-1.5378974E-1,-5.00806E-1,-2.1657622E-1,-1.1753383E-1,1.904383E-1,-5.4293174E-2,-5.196352E-1,-3.7378213E-1,1.863228E-1,-5.0973845E-1,-2.4068685E-2,-2.349567E-1,3.0767877E-2,-2.620774E-1,1.9780928E-2,1.958493E-2,-3.798345E-2,-4.2451522E-1,-5.42829E-1,-2.0031142E-1,-5.2786005E-1,-3.7352923E-2,1.9164406E-2,-5.159525E-2,8.3655E-3,-1.7763637E-2,1.6357802E-2,-4.2556133E-2,-2.2639459E-2,-4.7875654E-2,2.5394762E-2,-4.2108744E-2,-2.2599636E-2,-1.8577375E-2,1.4468103E-2,6.1425805E-2,-5.4525107E-2,7.5743295E-4,-5.4337334E-2,-2.8961701E-2,2.0804763E-2,-5.4178532E-2,-1.905196E-2,-1.8567136E-2,1.4603001E-2],"categories":[],"categories_nodes":[],"categories_segments":[],"categories_sizes":[],"default_left":[0,0,0,0,0,0,0,0,0,0,0,0,0,0,0,0,0,0,0,0,0,0,0,0,0,0,0,0,0,0,0,0,0,0,0,0,0,0,0,0,0,0,0,0,0,0,0,0,0,0,0],"id":30,"left_children":[1,3,5,7,9,11,13,15,17,19,21,-1,23,25,27,29,31,33,35,37,-1,-1,39,41,43,45,47,49,-1,-1,-1,-1,-1,-1,-1,-1,-1,-1,-1,-1,-1,-1,-1,-1,-1,-1,-1,-1,-1,-1,-1],"loss_changes":[9.202417E1,5.1392815E1,9.1622314E1,1.3115913E1,3.4552832E0,6.7944336E-1,4.9389267E1,1.3035431E0,1.5935345E0,1.9959247E0,3.2995415E-1,0E0,4.7226562E0,1.0601315E1,3.1610107E-1,1.1613693E0,2.2306488E-1,4.338894E-1,2.9666886E0,7.509446E-2,0E0,0E0,2.1249598E-1,5.610887E1,5.438843E-1,6.991118E0,8.905144E-1,2.1392894E-1,0E0,0E0,0E0,0E0,0E0,0E0,0E0,0E0,0E0,0E0,0E0,0E0,0E0,0E0,0E0,0E0,0E0,0E0,0E0,0E0,0E0,0E0,0E0],"parents":[2147483647,0,0,1,1,2,2,3,3,4,4,5,5,6,6,7,7,8,8,9,9,10,10,12,12,13,13,14,14,15,15,16,16,17,17,18,18,19,19,22,22,23,23,24,24,25,25,26,26,27,27],"right_children":[2,4,6,8,10,12,14,16,18,20,22,-1,24,26,28,30,32,34,36,38,-1,-1,40,42,44,46,48,50,-1,-1,-1,-1,-1,-1,-1,-1,-1,-1,-1,-1,-1,-1,-1,-1,-1,-1,-1,-1,-1,-1,-1],"split_conditions":[1.11E2,8E0,1.18E2,2E0,5.4E1,7.6E1,9E0,9.9E1,3E0,1.2E1,8E0,-5.4293174E-2,5.44E2,5E0,6.9E1,2E0,2E0,4.1E1,4E0,9E0,1.9780928E-2,1.958493E-2,4E0,1E0,3.94E2,5E0,1.19E2,4E0,1.9164406E-2,-5.159525E-2,8.3655E-3,-1.7763637E-2,1.6357802E-2,-4.2556133E-2,-2.2639459E-2,-4.7875654E-2,2.5394762E-2,-4.2108744E-2,-2.2599636E-2,-1.8577375E-2,1.4468103E-2,6.1425805E-2,-5.4525107E-2,7.5743295E-4,-5.4337334E-2,-2.8961701E-2,2.0804763E-2,-5.4178532E-2,-1.905196E-2,-1.8567136E-2,1.4603001E-2],"split_indices":[1,40,1,35,26,27,30,1,34,30,32,0,7,35,6,33,30,26,15,32,0,0,0,2,8,30,1,0,0,0,0,0,0,0,0,0,0,0,0,0,0,0,0,0,0,0,0,0,0,0,0],"split_type":[0,0,0,0,0,0,0,0,0,0,0,0,0,0,0,0,0,0,0,0,0,0,0,0,0,0,0,0,0,0,0,0,0,0,0,0,0,0,0,0,0,0,0,0,0,0,0,0,0,0,0],"sum_hessian":[1.2583224E4,9.574998E2,1.1625724E4,6.5591113E2,3.0158868E2,1.0967565E4,6.5815784E2,3.0798935E2,3.4792178E2,4.1651356E1,2.5993732E2,8.723474E3,2.2440916E3,3.995931E2,2.5856476E2,3.0225684E2,5.7325206E0,3.2390225E2,2.4019535E1,2.8676054E1,1.2975304E1,2.5406157E2,5.875752E0,4.437075E2,1.8003842E3,1.890494E2,2.1054372E2,5.868446E0,2.526963E2,2.9925354E2,3.0032787E0,3.1818674E0,2.5506532E0,1.183075E1,3.120715E2,6.967474E0,1.7052061E1,3.3300061E0,2.5346046E1,3.2385128E0,2.6372395E0,4.5776154E1,3.9793134E2,1.7662605E0,1.7986179E3,1.553632E2,3.3686188E1,2.0161511E2,8.928594E0,3.2375035E0,2.6309423E0],"tree_param":{"num_deleted":"0","num_feature":"42","num_nodes":"51","size_leaf_vector":"0"}},{"base_weights":[-4.9914816E-1,-5.157647E-1,-1.9475369E-1,-2.5066262E-1,-5.385252E-1,-4.4582337E-1,1.863228E-1,-4.5571685E-1,1.3222012E-1,2.594978E-1,-5.388797E-1,-4.9214244E-1,1.837263E-2,-3.7352923E-2,1.9164406E-2,-4.701881E-1,2.090756E-2,-7.867654E-2,1.8694413E-1,9.649428E-2,-3.9555814E-2,-5.390559E-1,-1.6632742E-1,-3.330597E-1,-5.390987E-1,-1.8567136E-2,1.4603001E-2,-5.02414E-2,-3.459014E-2,-2.5765706E-2,8.155376E-3,1.9046042E-2,-3.0380068E-2,-5.058322E-2,-5.4115083E-2,5.821318E-2,-4.4560887E-2,-4.542684E-2,2.166096E-2,-5.4263707E-2,-1.5613881E-2],"categories":[],"categories_nodes":[],"categories_segments":[],"categories_sizes":[],"default_left":[0,0,0,0,0,0,0,0,0,0,0,0,0,0,0,0,0,0,0,0,0,0,0,0,0,0,0,0,0,0,0,0,0,0,0,0,0,0,0,0,0],"id":31,"left_children":[1,3,5,7,9,11,13,15,17,19,21,23,-1,25,-1,27,-1,29,31,-1,-1,33,35,37,39,-1,-1,-1,-1,-1,-1,-1,-1,-1,-1,-1,-1,-1,-1,-1,-1],"loss_changes":[6.3428467E1,7.1724365E1,6.244129E1,7.413701E1,3.2419434E0,1.1556046E1,3.1610107E-1,6.0116425E0,3.8214612E0,2.9436831E0,6.3012695E-1,2.5583344E0,0E0,2.1392894E-1,0E0,2.2368927E0,0E0,1.9900243E0,5.102873E-1,0E0,0E0,4.8876953E-1,1.6450497E0,5.8378735E0,2.9654694E-1,0E0,0E0,0E0,0E0,0E0,0E0,0E0,0E0,0E0,0E0,0E0,0E0,0E0,0E0,0E0,0E0],"parents":[2147483647,0,0,1,1,2,2,3,3,4,4,5,5,6,6,7,7,8,8,9,9,10,10,11,11,13,13,15,15,17,17,18,18,21,21,22,22,23,23,24,24],"right_children":[2,4,6,8,10,12,14,16,18,20,22,24,-1,26,-1,28,-1,30,32,-1,-1,34,36,38,40,-1,-1,-1,-1,-1,-1,-1,-1,-1,-1,-1,-1,-1,-1,-1,-1],"split_conditions":[1.18E2,1.11E2,9E0,7E0,3E0,1E1,6.9E1,4E0,5.4E1,1E0,2E0,4E0,1.837263E-2,4E0,1.9164406E-2,2.321E3,2.090756E-2,1.1E1,1.7E2,9.649428E-2,-3.9555814E-2,1.3E1,1.203E3,4E0,1.27E2,-1.8567136E-2,1.4603001E-2,-5.02414E-2,-3.459014E-2,-2.5765706E-2,8.155376E-3,1.9046042E-2,-3.0380068E-2,-5.058322E-2,-5.4115083E-2,5.821318E-2,-4.4560887E-2,-4.542684E-2,2.166096E-2,-5.4263707E-2,-1.5613881E-2],"split_indices":[1,1,30,30,26,0,6,33,26,32,28,35,0,0,0,17,0,0,6,0,0,26,24,30,1,0,0,0,0,0,0,0,0,0,0,0,0,0,0,0,0],"split_type":[0,0,0,0,0,0,0,0,0,0,0,0,0,0,0,0,0,0,0,0,0,0,0,0,0,0,0,0,0,0,0,0,0,0,0,0,0,0,0,0,0],"sum_hessian":[1.2559133E4,1.1908373E4,6.5075946E2,9.425119E2,1.0965861E4,3.9219473E2,2.5856476E2,6.13669E2,3.288429E2,4.5441675E0,1.0961317E4,3.655199E2,2.6674837E1,5.868446E0,2.526963E2,6.008817E2,1.2787307E1,6.765907E1,2.611838E2,1.9601582E0,2.5840094E0,1.0955688E4,5.6289124E0,8.5146324E1,2.8037357E2,3.2375035E0,2.6309423E0,4.747445E2,1.26137184E2,3.167236E1,3.5986713E1,2.5993323E2,1.250583E0,6.642148E2,1.0291474E4,1.2349422E0,4.3939705E0,6.990498E1,1.5241334E1,2.7739365E2,2.9799438E0],"tree_param":{"num_deleted":"0","num_feature":"42","num_nodes":"41","size_leaf_vector":"0"}},{"base_weights":[-2.4729764E-1,-3.2553294E-1,8.21869E-1,6.392537E-1,-4.3335688E-1,1.0645139E0,2.085244E-1,7.885361E-1,-5.400434E-2,-1.7882222E-1,-5.071692E-1,1.1015351E0,1.837263E-2,6.993615E-1,1.9164406E-2,9.921015E-1,3.6389008E-1,-5.420779E-2,-1.2963061E-1,-5.1033604E-1,1.4474313E0,8.7841266E-1,1.1324222E0,9.3039595E-2,1.4603001E-2,9.816746E-3,1.0367238E-1,8.245261E-2,1.9569028E-2,-3.32636E-2,1.2296172E-3,-4.0552057E-2,-5.2699566E-2,2.064981E-1,-4.2210814E-2,1.023492E-1,1.5500163E-2,1.4427475E-2,1.136926E-1],"categories":[],"categories_nodes":[],"categories_segments":[],"categories_sizes":[],"default_left":[0,0,0,0,0,0,0,0,0,0,0,0,0,0,0,0,0,0,0,0,0,0,0,0,0,0,0,0,0,0,0,0,0,0,0,0,0,0,0],"id":32,"left_children":[1,3,5,7,9,11,13,15,-1,17,19,21,-1,23,-1,25,27,-1,29,31,33,35,37,-1,-1,-1,-1,-1,-1,-1,-1,-1,-1,-1,-1,-1,-1,-1,-1],"loss_changes":[1.1240542E3,1.3026544E3,1.3615253E2,2.2205908E2,2.1149097E2,2.1199585E1,2.0284567E0,9.62724E1,0E0,4.519516E1,5.4773926E1,3.3446655E0,0E0,9.251976E-1,0E0,3.0017212E1,2.8026848E1,0E0,6.432245E1,1.5006348E1,1.7475403E1,8.3450775E0,2.2821045E0,0E0,0E0,0E0,0E0,0E0,0E0,0E0,0E0,0E0,0E0,0E0,0E0,0E0,0E0,0E0,0E0],"parents":[2147483647,0,0,1,1,2,2,3,3,4,4,5,5,6,6,7,7,9,9,10,10,11,11,13,13,15,15,16,16,18,18,19,19,20,20,21,21,22,22],"right_children":[2,4,6,8,10,12,14,16,-1,18,20,22,-1,24,-1,26,28,-1,30,32,34,36,38,-1,-1,-1,-1,-1,-1,-1,-1,-1,-1,-1,-1,-1,-1,-1,-1],"split_conditions":[1.18E2,1.11E2,9E0,3.9485E4,1E0,1E1,6.9E1,7E0,-5.400434E-2,6E0,1.15E2,3E0,1.837263E-2,4E0,1.9164406E-2,9E0,5.4E1,-5.420779E-2,1.3252E4,2E0,5E0,3E0,4.0605E4,9.3039595E-2,1.4603001E-2,9.816746E-3,1.0367238E-1,8.245261E-2,1.9569028E-2,-3.32636E-2,1.2296172E-3,-4.0552057E-2,-5.2699566E-2,2.064981E-1,-4.2210814E-2,1.023492E-1,1.5500163E-2,1.4427475E-2,1.136926E-1],"split_indices":[1,1,30,15,40,0,6,30,0,9,13,35,0,0,0,26,26,0,12,30,27,30,8,0,0,0,0,0,0,0,0,0,0,0,0,0,0,0,0],"split_type":[0,0,0,0,0,0,0,0,0,0,0,0,0,0,0,0,0,0,0,0,0,0,0,0,0,0,0,0,0,0,0,0,0,0,0,0,0,0,0],"sum_hessian":[1.3433939E4,1.2518598E4,9.1534143E2,1.2579338E3,1.1260664E4,6.553451E2,2.5999634E2,1.1168834E3,1.4105037E2,2.5321638E3,8.7285E3,6.286703E2,2.6674837E1,7.300024E0,2.526963E2,7.540657E2,3.6281778E2,3.0081015E2,2.2313538E3,8.715119E3,1.3381358E1,8.002484E1,5.4864545E2,4.6690817E0,2.6309423E0,3.600306E1,7.180626E2,9.60021E1,2.668157E2,9.175663E2,1.3137874E3,1.1987039E3,7.516415E3,9.980155E0,3.4012032E0,6.631135E1,1.371349E1,2.63914E0,5.460063E2],"tree_param":{"num_deleted":"0","num_feature":"42","num_nodes":"39","size_leaf_vector":"0"}},{"base_weights":[1.6281955E-1,9.966801E-1,-1.5481809E-1,-9.725541E-2,1.2825762E0,-2.5242257E-1,8.888435E-1,5.43262E-1,-3.9980346E-1,5.233837E-1,1.5527982E0,7.63718E-1,-3.6461723E-1,9.859283E-1,6.879716E-2,-5.3888142E-2,1.2157068E0,-5.0273657E-1,2.4774279E-1,1.562596E-2,1.3086169E0,1.2507964E0,1.7140964E0,8.228627E-1,-5.316148E-2,-5.2366793E-1,-5.4503366E-2,6.6070154E-2,1.0011592E0,1.1258389E-1,1.5020762E-1,-5.0837636E-2,6.394001E-2,1.903749E-4,1.0255641E-1,-3.747199E-2,5.218475E-2,5.2477855E-2,1.6133788E-1,1.3902633E-1,4.3883752E-2,1.7761245E-1,8.675745E-2,3.1739905E-2,8.5246794E-2,1.264512E-1,-5.2464645E-2,-2.7740631E-2,1.8578212E-1,9.3988165E-2,1.0417719E-1],"categories":[],"categories_nodes":[],"categories_segments":[],"categories_sizes":[],"default_left":[0,0,0,0,0,0,0,0,0,0,0,0,0,0,0,0,0,0,0,0,0,0,0,0,0,0,0,0,0,0,0,0,0,0,0,0,0,0,0,0,0,0,0,0,0,0,0,0,0,0,0],"id":33,"left_children":[1,3,5,7,9,11,13,15,17,19,21,23,25,27,-1,-1,29,31,33,35,37,39,41,43,-1,45,47,-1,49,-1,-1,-1,-1,-1,-1,-1,-1,-1,-1,-1,-1,-1,-1,-1,-1,-1,-1,-1,-1,-1,-1],"loss_changes":[4.0249785E3,1.3111299E3,1.1212491E3,1.6870805E2,6.80978E2,1.1476875E3,1.768042E1,2.0393976E2,3.952395E1,3.4840887E2,1.172251E2,7.71319E1,4.4706348E2,2.4707642E0,0E0,0E0,2.750885E0,3.612503E0,1.5628958E1,1.05265915E2,8.113043E1,9.641919E1,8.219043E1,1.40616455E1,0E0,1.1146851E1,1.310861E3,0E0,5.192871E-1,0E0,0E0,0E0,0E0,0E0,0E0,0E0,0E0,0E0,0E0,0E0,0E0,0E0,0E0,0E0,0E0,0E0,0E0,0E0,0E0,0E0,0E0],"parents":[2147483647,0,0,1,1,2,2,3,3,4,4,5,5,6,6,7,7,8,8,9,9,10,10,11,11,12,12,13,13,16,16,17,17,18,18,19,19,20,20,21,21,22,22,23,23,25,25,26,26,28,28],"right_children":[2,4,6,8,10,12,14,16,18,20,22,24,26,28,-1,-1,30,32,34,36,38,40,42,44,-1,46,48,-1,50,-1,-1,-1,-1,-1,-1,-1,-1,-1,-1,-1,-1,-1,-1,-1,-1,-1,-1,-1,-1,-1,-1],"split_conditions":[1E0,4E0,1.18E2,1.07E2,1.376E4,1.11E2,9E0,7E0,4.1818E4,3E0,6.03E2,3.9485E4,5E0,4.0607E4,6.879716E-2,-5.3888142E-2,2.54E3,1E0,7.63E2,4.6E1,3.95E2,2.6824E4,9E0,2.7E1,-5.316148E-2,1E0,6.03E2,6.6070154E-2,5E0,1.1258389E-1,1.5020762E-1,-5.0837636E-2,6.394001E-2,1.903749E-4,1.0255641E-1,-3.747199E-2,5.218475E-2,5.2477855E-2,1.6133788E-1,1.3902633E-1,4.3883752E-2,1.7761245E-1,8.675745E-2,3.1739905E-2,8.5246794E-2,1.264512E-1,-5.2464645E-2,-2.7740631E-2,1.8578212E-1,9.3988165E-2,1.0417719E-1],"split_indices":[40,10,1,1,12,1,30,1,11,2,7,15,10,8,0,0,6,34,26,26,6,0,9,26,0,6,7,0,35,0,0,0,0,0,0,0,0,0,0,0,0,0,0,0,0,0,0,0,0,0,0],"split_type":[0,0,0,0,0,0,0,0,0,0,0,0,0,0,0,0,0,0,0,0,0,0,0,0,0,0,0,0,0,0,0,0,0,0,0,0,0,0,0,0,0,0,0,0,0,0,0,0,0,0,0],"sum_hessian":[1.5194729E4,4.190835E3,1.1003894E4,8.6846277E2,3.3223723E3,1.0063502E4,9.4039246E2,2.7835925E2,5.901035E2,8.7289545E2,2.4494768E3,1.0000748E3,9.063427E3,6.313444E2,3.0904807E2,1.06757126E2,1.7160213E2,5.0935995E2,8.074357E1,5.3072864E2,3.4216678E2,8.5583563E2,1.5936411E3,9.5675433E2,4.3320503E1,5.990394E3,3.0730327E3,3.0229563E1,6.0111487E2,1.343668E2,3.7235325E1,5.074093E2,1.9506671E0,6.211415E1,1.862942E1,2.9980768E2,2.3092099E2,9.655421E1,2.4561258E2,7.297733E2,1.2606231E2,1.4838177E3,1.0982337E2,5.358549E1,9.031688E2,2.5700214E0,5.987824E3,2.752995E3,3.2003763E2,2.4922253E2,3.5189233E2],"tree_param":{"num_deleted":"0","num_feature":"42","num_nodes":"51","size_leaf_vector":"0"}},{"base_weights":[-1.21172525E-1,-5.440995E-2,6.342258E-2,-4.2141673E-1,3.5784328E-1,6.682011E-2,-5.187737E-1,-1.2665305E-1,5.427921E-1,6.759016E-1,-3.105008E-1,-5.395847E-1,1.3230164E-1,-2.9010746E-1,4.3108082E-1,1.312633E0,1.4462657E-1,-3.0999696E-2,1.4748576E-1,-4.690334E-2,2.8201018E-2,9.62258E-2,-5.409024E-2,-1.1863819E-2,9.238925E-2,-3.320371E-2,1.0547656E-1,9.427059E-2,-2.7952049E-2,2.5321484E-2,1.9075647E-1,-9.220031E-3,6.873777E-2],"categories":[],"categories_nodes":[],"categories_segments":[],"categories_sizes":[],"default_left":[0,0,0,0,0,0,0,0,0,0,0,0,0,0,0,0,0,0,0,0,0,0,0,0,0,0,0,0,0,0,0,0,0],"id":34,"left_children":[1,-1,3,5,7,9,11,13,15,17,19,21,23,25,27,29,31,-1,-1,-1,-1,-1,-1,-1,-1,-1,-1,-1,-1,-1,-1,-1,-1],"loss_changes":[1.0881932E3,0E0,1.3853627E3,1.7433087E2,5.411299E2,1.4051631E2,4.1496704E1,1.5227635E2,1.3393738E3,1.8465659E2,3.560678E1,6.38385E0,1.9079992E1,7.3167404E1,1.3793352E2,9.3840845E2,3.7045023E2,0E0,0E0,0E0,0E0,0E0,0E0,0E0,0E0,0E0,0E0,0E0,0E0,0E0,0E0,0E0,0E0],"parents":[2147483647,0,0,2,2,3,3,4,4,5,5,6,6,7,7,8,8,9,9,10,10,11,11,12,12,13,13,14,14,15,15,16,16],"right_children":[2,-1,4,6,8,10,12,14,16,18,20,22,24,26,28,30,32,-1,-1,-1,-1,-1,-1,-1,-1,-1,-1,-1,-1,-1,-1,-1,-1],"split_conditions":[9E0,-5.440995E-2,6.9E1,2.7E1,2E0,2E0,4.7E1,1.94E2,2E0,2E0,2E0,7E0,1.3E1,1.06E3,2.95E2,2E0,9E0,-3.0999696E-2,1.4748576E-1,-4.690334E-2,2.8201018E-2,9.62258E-2,-5.409024E-2,-1.1863819E-2,9.238925E-2,-3.320371E-2,1.0547656E-1,9.427059E-2,-2.7952049E-2,2.5321484E-2,1.9075647E-1,-9.220031E-3,6.873777E-2],"split_indices":[9,0,6,6,30,35,26,7,35,40,33,26,30,26,7,40,30,0,0,0,0,0,0,0,0,0,0,0,0,0,0,0,0],"split_type":[0,0,0,0,0,0,0,0,0,0,0,0,0,0,0,0,0,0,0,0,0,0,0,0,0,0,0,0,0,0,0,0,0],"sum_hessian":[1.3937198E4,4.234215E3,9.702983E3,3.6658264E3,6.0371562E3,6.09508E2,3.0563184E3,1.6679832E3,4.3691733E3,2.3284769E2,3.7666028E2,2.9618179E3,9.450053E1,1.2903126E3,3.7767056E2,1.4886387E3,2.8805347E3,1.0450375E2,1.2834393E2,2.9731805E2,7.934222E1,1.9571092E0,2.9598608E3,7.23995E1,2.2101023E1,1.2520306E3,3.8281948E1,2.1938742E2,1.5828314E2,5.3585175E2,9.527869E2,2.0060391E3,8.744956E2],"tree_param":{"num_deleted":"0","num_feature":"42","num_nodes":"33","size_leaf_vector":"0"}},{"base_weights":[5.036588E-1,1.6524028E0,-4.709721E-1,-5.121239E-1,1.8566006E0,-3.5218313E-1,-5.144773E-1,-5.2054995E-1,1.6944632E-2,1.8586761E0,-2.3393703E-1,-4.9405313E-1,-1.8833882E-1,-5.156306E-1,1.9567697E-1,-5.288119E-1,-4.623543E-1,-3.1155631E-2,1.8590687E-1,2.4694172E-1,-4.5569565E-2,-4.9749255E-1,8.775733E-2,2.326015E-1,-3.625416E-1,-4.6329826E-1,-5.269493E-1,-4.960781E-2,-5.439815E-2,-5.2296698E-2,-2.3857098E-2,-3.000666E-2,7.0907526E-2,-5.10741E-2,-3.963081E-2,-3.379515E-2,1.3227572E-1,-1.3910166E-2,1.1810105E-1,-4.8838943E-2,-7.066363E-3,-4.672211E-2,1.14025235E-1,-5.2779198E-2,-1.9380271E-2],"categories":[],"categories_nodes":[],"categories_segments":[],"categories_sizes":[],"default_left":[0,0,0,0,0,0,0,0,0,0,0,0,0,0,0,0,0,0,0,0,0,0,0,0,0,0,0,0,0,0,0,0,0,0,0,0,0,0,0,0,0,0,0,0,0],"id":35,"left_children":[1,3,5,7,9,11,13,15,-1,17,19,21,23,25,-1,27,29,-1,-1,31,-1,33,35,37,39,41,43,-1,-1,-1,-1,-1,-1,-1,-1,-1,-1,-1,-1,-1,-1,-1,-1,-1,-1],"loss_changes":[1.9076809E4,3.4576719E3,4.745935E1,3.9645996E0,3.1445312E1,5.7421112E1,2.0233276E1,7.6171875E-2,0E0,6.6621094E0,9.631417E-1,2.6960144E0,8.440115E1,3.7496338E0,0E0,1.6708374E-2,1.1078854E0,0E0,0E0,1.0131111E0,0E0,1.564148E0,4.9893084E0,1.1902806E2,2.9853264E1,8.127289E0,1.4521484E0,0E0,0E0,0E0,0E0,0E0,0E0,0E0,0E0,0E0,0E0,0E0,0E0,0E0,0E0,0E0,0E0,0E0,0E0],"parents":[2147483647,0,0,1,1,2,2,3,3,4,4,5,5,6,6,7,7,9,9,10,10,11,11,12,12,13,13,15,15,16,16,19,19,21,21,22,22,23,23,24,24,25,25,26,26],"right_children":[2,4,6,8,10,12,14,16,-1,18,20,22,24,26,-1,28,30,-1,-1,32,-1,34,36,38,40,42,44,-1,-1,-1,-1,-1,-1,-1,-1,-1,-1,-1,-1,-1,-1,-1,-1,-1,-1],"split_conditions":[3.4E1,1E0,1E0,5E0,2E1,5.02E2,1.2E1,1E0,1.6944632E-2,8E0,2.2E1,9E0,3E0,2E0,1.9567697E-1,1E0,8E0,-3.1155631E-2,1.8590687E-1,2.1E1,-4.5569565E-2,5.8E1,2E0,9.8E1,9E0,2E0,2.6E1,-4.960781E-2,-5.439815E-2,-5.2296698E-2,-2.3857098E-2,-3.000666E-2,7.0907526E-2,-5.10741E-2,-3.963081E-2,-3.379515E-2,1.3227572E-1,-1.3910166E-2,1.1810105E-1,-4.8838943E-2,-7.066363E-3,-4.672211E-2,1.14025235E-1,-5.2779198E-2,-1.9380271E-2],"split_indices":[6,2,40,34,26,6,2,34,0,9,26,2,13,30,0,35,30,0,0,26,0,26,39,27,9,33,39,0,0,0,0,0,0,0,0,0,0,0,0,0,0,0,0,0,0],"split_type":[0,0,0,0,0,0,0,0,0,0,0,0,0,0,0,0,0,0,0,0,0,0,0,0,0,0,0,0,0,